{"learner":{"attributes":{},"gradient_booster":{"model":{"gbtree_model_param":{"num_trees":"100","size_leaf_vector":"0"},"tree_info":[0,0,0,0,0,0,0,0,0,0,0,0,0,0,0,0,0,0,0,0,0,0,0,0,0,0,0,0,0,0,0,0,0,0,0,0,0,0,0,0,0,0,0,0,0,0,0,0,0,0,0,0,0,0,0,0,0,0,0,0,0,0,0,0,0,0,0,0,0,0,0,0,0,0,0,0,0,0,0,0,0,0,0,0,0,0,0,0,0,0,0,0,0,0,0,0,0,0,0,0],"trees":[{"base_weights":[-6.0665363E-1,2.7868852E-1,-1.3948339E0,-2.0858896E-1,1.2E0,-1.5193799E0,8.235294E-1,-9.0909094E-1,4.8780486E-2,4.516129E-1,1.5172414E0,-1.1724138E0,-1.8974359E0,1.3333334E0,-2.2222222E-1,-0E0,-1.3333334E0,7.777778E-1,-2.4175824E-1,-2E-1,1.2E0,1.755102E0,1.5384616E-1,-1.5238096E0,-6.4615387E-1],"categories":[],"categories_nodes":[],"categories_segments":[],"categories_sizes":[],"default_left":[true,true,true,true,true,true,true,true,false,false,true,true,false,false,false,false,false,false,false,false,false,false,false,false,false],"id":0,"left_children":[1,3,5,7,9,11,13,15,17,19,21,23,-1,-1,-1,-1,-1,-1,-1,-1,-1,-1,-1,-1,-1],"loss_changes":[8.953386E1,2.76353E1,1.9969772E1,7.3910737E0,4.3599567E0,6.2360535E0,2.5620918E0,4.242424E0,6.7009444E0,4.019355E0,4.432308E0,5.718933E0,0E0,0E0,0E0,0E0,0E0,0E0,0E0,0E0,0E0,0E0,0E0,0E0,0E0],"parents":[2147483647,0,0,1,1,2,2,3,3,4,4,5,5,6,6,7,7,8,8,9,9,10,10,11,11],"right_children":[2,4,6,8,10,12,14,16,18,20,22,24,-1,-1,-1,-1,-1,-1,-1,-1,-1,-1,-1,-1,-1],"split_conditions":[2.1664711E1,3.1399152E0,4.0307026E0,-3.609749E-1,-2.2335388E1,1.16347824E2,6.471056E1,7.550579E1,2.1682243E0,4.008183E0,1.09448715E2,2.3485446E0,-1.897436E-1,1.3333334E-1,-2.2222223E-2,-0E0,-1.3333334E-1,7.777778E-2,-2.4175825E-2,-2.0000001E-2,1.20000005E-1,1.7551021E-1,1.5384616E-2,-1.5238096E-1,-6.461539E-2],"split_indices":[1,3,3,6,1,0,7,0,3,3,0,3,0,0,0,0,0,0,0,0,0,0,0,0,0],"split_type":[0,0,0,0,0,0,0,0,0,0,0,0,0,0,0,0,0,0,0,0,0,0,0,0,0],"sum_hessian":[1.2675E2,6E1,6.675E1,3.975E1,2.025E1,6.35E1,3.25E0,1E1,2.975E1,6.75E0,1.35E1,3.525E1,2.825E1,2E0,1.25E0,3.5E0,6.5E0,8E0,2.175E1,4E0,2.75E0,1.125E1,2.25E0,2E1,1.525E1],"tree_param":{"num_deleted":"0","num_feature":"8","num_nodes":"25","size_leaf_vector":"0"}},{"base_weights":[-5.4908085E-1,2.5494224E-1,-1.2673947E0,-1.4724056E-1,1.190196E0,-1.3823292E0,7.6904446E-1,-8.325997E-1,8.176639E-2,1.2971225E0,-9.230989E-3,-1.0651962E0,-1.7296733E0,1.2482636E0,-2.0989144E-1,-0E0,-1.2226441E0,-6.0185206E-1,3.575467E-1,2.5038117E-1,1.4609444E0,-1.3866013E0,-5.861097E-1],"categories":[],"categories_nodes":[],"categories_segments":[],"categories_sizes":[],"default_left":[true,true,true,true,true,true,true,true,true,true,false,true,false,false,false,false,false,false,false,false,false,false,false],"id":1,"left_children":[1,3,5,7,9,11,13,15,17,19,-1,21,-1,-1,-1,-1,-1,-1,-1,-1,-1,-1,-1],"loss_changes":[7.379555E1,2.3067057E1,1.6828392E1,6.8873496E0,2.3732204E0,5.220169E0,2.2515502E0,3.5629063E0,6.526546E0,2.5341415E0,0E0,4.748848E0,0E0,0E0,0E0,0E0,0E0,0E0,0E0,0E0,0E0,0E0,0E0],"parents":[2147483647,0,0,1,1,2,2,3,3,4,4,5,5,6,6,7,7,8,8,9,9,11,11],"right_children":[2,4,6,8,10,12,14,16,18,20,-1,22,-1,-1,-1,-1,-1,-1,-1,-1,-1,-1,-1],"split_conditions":[2.1664711E1,3.2123375E0,4.0307026E0,-3.609749E-1,1.09448715E2,1.16347824E2,6.471056E1,7.550579E1,-2.3558447E1,-3.2728657E1,-9.2309894E-4,2.3485446E0,-1.7296733E-1,1.24826364E-1,-2.0989144E-2,-0E0,-1.2226441E-1,-6.0185205E-2,3.575467E-2,2.5038118E-2,1.4609444E-1,-1.3866013E-1,-5.8610972E-2],"split_indices":[1,3,3,6,0,0,7,0,1,1,0,3,0,0,0,0,0,0,0,0,0,0,0],"split_type":[0,0,0,0,0,0,0,0,0,0,0,0,0,0,0,0,0,0,0,0,0,0,0],"sum_hessian":[1.26216E2,5.9859333E1,6.6356674E1,4.2448128E1,1.7411203E1,6.3115692E1,3.240983E0,9.971197E0,3.2476933E1,1.5911292E1,1.4999112E0,3.5118443E1,2.799725E1,1.9911374E0,1.2498457E0,3.5E0,6.471197E0,8.995661E0,2.348127E1,2.4953856E0,1.3415907E1,1.9884348E1,1.5234093E1],"tree_param":{"num_deleted":"0","num_feature":"8","num_nodes":"23","size_leaf_vector":"0"}},{"base_weights":[-5.018094E-1,8.596547E-2,-1.3301331E0,-3.5026303E-1,9.572694E-1,3.4265167E-1,-1.4196218E0,-1.1621986E-1,-1.1034558E0,1.1591233E0,-3.142354E-1,6.9305146E-1,-1.6034879E-1,-1.4436175E0,-2.65888E-1,-7.6029456E-1,6.8930335E-2,-1.2485781E0,-1.6592537E-1,4.3646964E-1,1.4328725E0,-1.018307E0,3.1458402E-1,-1.0271399E0,-1.5324367E0],"categories":[],"categories_nodes":[],"categories_segments":[],"categories_sizes":[],"default_left":[true,true,false,true,true,true,true,true,true,true,true,false,false,true,false,false,false,false,false,false,false,false,false,false,false],"id":2,"left_children":[1,3,5,7,9,11,13,15,17,19,21,-1,-1,23,-1,-1,-1,-1,-1,-1,-1,-1,-1,-1,-1],"loss_changes":[6.140322E1,2.86796E1,8.317139E0,8.760759E0,6.818548E0,7.2129864E-1,9.962082E-1,4.773412E0,1.4032784E0,3.7100487E0,2.1939893E0,0E0,0E0,2.2402954E-1,0E0,0E0,0E0,0E0,0E0,0E0,0E0,0E0,0E0,0E0,0E0],"parents":[2147483647,0,0,1,1,2,2,3,3,4,4,5,5,6,6,7,7,8,8,9,9,10,10,13,13],"right_children":[2,4,6,8,10,12,14,16,18,20,22,-1,-1,24,-1,-1,-1,-1,-1,-1,-1,-1,-1,-1,-1],"split_conditions":[4.3497604E1,3.1399152E0,-2.5427246E0,1.038103E2,1.0882148E2,7.415199E-1,4.061024E0,-4.4566E-1,5.017312E-1,-2.2335388E1,6.004078E-2,6.9305144E-2,-1.6034879E-2,7.339023E1,-2.6588801E-2,-7.602946E-2,6.8930336E-3,-1.24857806E-1,-1.6592538E-2,4.3646965E-2,1.4328726E-1,-1.018307E-1,3.1458404E-2,-1.02713995E-1,-1.5324368E-1],"split_indices":[1,3,2,0,0,4,3,6,6,1,6,0,0,0,0,0,0,0,0,0,0,0,0,0,0],"split_type":[0,0,0,0,0,0,0,0,0,0,0,0,0,0,0,0,0,0,0,0,0,0,0,0,0],"sum_hessian":[1.24884E2,7.357308E1,5.131092E1,4.9425587E1,2.4147497E1,2.4619253E0,4.8848995E1,3.858896E1,1.0836627E1,2.0915504E1,3.2319925E0,1.2283785E0,1.2335467E0,4.7607582E1,1.2414109E0,7.9225903E0,3.0666368E1,9.09675E0,1.7398773E0,6.4590573E0,1.4456447E1,1.2325479E0,1.9994445E0,1.0576814E1,3.703077E1],"tree_param":{"num_deleted":"0","num_feature":"8","num_nodes":"25","size_leaf_vector":"0"}},{"base_weights":[-4.6125835E-1,2.18161E-1,-1.0829465E0,-1.1033129E-1,1.0459236E0,-1.22414E0,2.8305244E-1,6.639052E-2,-7.90841E-1,1.1972353E0,9.1522135E-2,-9.674062E-1,-1.537369E0,1.162866E0,-2.335802E-1,-6.5384823E-1,3.9961946E-1,-1.0344473E0,6.0015205E-2,7.746803E-2,1.3916352E0,-8.068891E-1,9.509677E-1,-1.2724223E0,-6.518231E-1,9.925917E-1,-8.6665165E-1],"categories":[],"categories_nodes":[],"categories_segments":[],"categories_sizes":[],"default_left":[true,true,true,true,true,true,true,true,true,true,true,true,false,false,false,false,false,false,false,false,false,false,false,false,false,false,false],"id":3,"left_children":[1,3,5,7,9,11,13,15,17,19,21,23,-1,-1,25,-1,-1,-1,-1,-1,-1,-1,-1,-1,-1,-1,-1],"loss_changes":[5.2662983E1,1.6467941E1,1.2879463E1,5.338919E0,2.3715477E0,3.2638855E0,3.4077878E0,8.857847E0,1.9564724E0,3.1023502E0,3.4187546E0,2.5556412E0,0E0,0E0,4.881047E0,0E0,0E0,0E0,0E0,0E0,0E0,0E0,0E0,0E0,0E0,0E0,0E0],"parents":[2147483647,0,0,1,1,2,2,3,3,4,4,5,5,6,6,7,7,8,8,9,9,10,10,11,11,14,14],"right_children":[2,4,6,8,10,12,14,16,18,20,22,24,-1,-1,26,-1,-1,-1,-1,-1,-1,-1,-1,-1,-1,-1,-1],"split_conditions":[2.1664711E1,3.24573E0,3.669255E0,1.038103E2,7.991491E1,1.2033133E2,4.1587486E1,-2.3558447E1,4.2645264E-1,-3.2728657E1,7.908903E-1,2.032041E0,-1.537369E-1,1.162866E-1,-1.9956055E0,-6.538483E-2,3.9961945E-2,-1.0344473E-1,6.0015204E-3,7.746803E-3,1.3916352E-1,-8.0688916E-2,9.5096774E-2,-1.2724224E-1,-6.518231E-2,9.925917E-2,-8.666517E-2],"split_indices":[1,3,3,0,7,0,1,1,4,1,5,3,0,0,2,0,0,0,0,0,0,0,0,0,0,0,0],"split_type":[0,0,0,0,0,0,0,0,0,0,0,0,0,0,0,0,0,0,0,0,0,0,0,0,0,0,0],"sum_hessian":[1.2312011E2,5.913873E1,6.398138E1,4.2957882E1,1.618085E1,5.8081738E1,5.899641E0,3.4818336E1,8.139546E0,1.3746958E1,2.4338906E0,3.4166294E1,2.3915443E1,1.7198757E0,4.179765E0,1.0709259E1,2.4109077E1,6.1600943E0,1.9794519E0,2.2404115E0,1.1506546E1,1.2198678E0,1.2140228E0,1.5832226E1,1.833407E1,1.229839E0,2.9499264E0],"tree_param":{"num_deleted":"0","num_feature":"8","num_nodes":"27","size_leaf_vector":"0"}},{"base_weights":[-4.248544E-1,7.437183E-2,-1.1537279E0,-2.967344E-1,8.3082104E-1,3.3725977E-1,-1.237576E0,-9.984754E-2,-9.4598687E-1,1.0133332E0,-2.9275936E-1,6.5152687E-1,-1.2794393E-1,-1.2889701E0,-5.8119184E-1,-6.868245E-1,6.7562535E-2,-1.083959E0,-1.05842546E-1,3.6179158E-1,1.2695524E0,-9.1900194E-1,2.6444465E-1,-8.7124884E-1,-1.3740021E0,-1.1494013E0,3.8741544E-1],"categories":[],"categories_nodes":[],"categories_segments":[],"categories_sizes":[],"default_left":[true,true,false,true,true,true,true,true,true,true,true,false,false,true,true,false,false,false,false,false,false,false,false,false,false,false,false],"id":4,"left_children":[1,3,5,7,9,11,13,15,17,19,21,-1,-1,23,25,-1,-1,-1,-1,-1,-1,-1,-1,-1,-1,-1,-1],"loss_changes":[4.4444637E1,2.0821058E1,6.6202393E0,6.285006E0,5.297241E0,5.84459E-1,8.427429E-1,3.9192104E0,1.21768E0,3.0800438E0,1.7028016E0,0E0,0E0,3.2815552E-1,3.3334742E0,0E0,0E0,0E0,0E0,0E0,0E0,0E0,0E0,0E0,0E0,0E0,0E0],"parents":[2147483647,0,0,1,1,2,2,3,3,4,4,5,5,6,6,7,7,8,8,9,9,10,10,13,13,14,14],"right_children":[2,4,6,8,10,12,14,16,18,20,22,-1,-1,24,26,-1,-1,-1,-1,-1,-1,-1,-1,-1,-1,-1,-1],"split_conditions":[4.3497604E1,3.1399152E0,-2.5427246E0,1.038103E2,1.0882148E2,7.415199E-1,1.9469991E0,-4.4566E-1,5.017312E-1,-2.2335388E1,6.004078E-2,6.515269E-2,-1.2794393E-2,7.339023E1,1.034668E0,-6.8682455E-2,6.7562535E-3,-1.083959E-1,-1.0584255E-2,3.617916E-2,1.2695524E-1,-9.190019E-2,2.6444465E-2,-8.7124884E-2,-1.3740021E-1,-1.1494013E-1,3.8741544E-2],"split_indices":[1,3,2,0,0,4,4,6,6,1,6,0,0,0,2,0,0,0,0,0,0,0,0,0,0,0,0],"split_type":[0,0,0,0,0,0,0,0,0,0,0,0,0,0,0,0,0,0,0,0,0,0,0,0,0,0,0],"sum_hessian":[1.2090752E2,7.229119E1,4.861633E1,4.890609E1,2.33851E1,2.427539E0,4.618879E1,3.8411522E1,1.0494567E1,2.0201696E1,3.183401E0,1.2097657E0,1.2177734E0,4.1941105E1,4.2476854E0,7.8355823E0,3.057594E1,8.764945E0,1.7296222E0,6.382818E0,1.3818879E1,1.1931304E0,1.9902709E0,8.995697E0,3.2945408E1,2.559541E0,1.6881447E0],"tree_param":{"num_deleted":"0","num_feature":"8","num_nodes":"27","size_leaf_vector":"0"}},{"base_weights":[-3.9367938E-1,1.8875366E-1,-9.4739944E-1,-5.5055052E-2,1.0406773E0,-1.0795456E0,2.844559E-1,-2.6143715E-1,4.32306E-1,2.0804684E-1,1.1690402E0,-8.371254E-1,-1.3905604E0,1.0354257E0,-1.6392927E-1,-6.192097E-1,1.5281765E-1,7.4795204E-1,-6.6084707E-1,1.2858566E0,2.1445481E-1,-1.2773752E0,-6.304299E-1,9.421051E-1,-7.5236595E-1],"categories":[],"categories_nodes":[],"categories_segments":[],"categories_sizes":[],"default_left":[true,true,true,true,true,true,true,true,true,false,true,false,false,false,false,false,false,false,false,false,false,false,false,false,false],"id":5,"left_children":[1,3,5,7,9,11,13,15,17,-1,19,21,-1,-1,23,-1,-1,-1,-1,-1,-1,-1,-1,-1,-1],"loss_changes":[3.8712807E1,1.2325636E1,1.0304958E1,4.827624E0,1.1668177E0,3.0336838E0,2.4398186E0,5.067311E0,5.4357753E0,0E0,9.7474384E-1,2.2705078E0,0E0,0E0,4.0180135E0,0E0,0E0,0E0,0E0,0E0,0E0,0E0,0E0,0E0,0E0],"parents":[2147483647,0,0,1,1,2,2,3,3,4,4,5,5,6,6,7,7,8,8,10,10,11,11,14,14],"right_children":[2,4,6,8,10,12,14,16,18,-1,20,22,-1,-1,24,-1,-1,-1,-1,-1,-1,-1,-1,-1,-1],"split_conditions":[2.1664711E1,3.4978762E0,3.669255E0,4.0869224E-1,-3.2728657E1,1.2033133E2,4.1587486E1,5.880543E1,8.570914E-1,2.0804685E-2,7.991491E1,2.032041E0,-1.3905604E-1,1.0354257E-1,-1.9956055E0,-6.192097E-2,1.5281766E-2,7.479521E-2,-6.6084705E-2,1.2858567E-1,2.1445481E-2,-1.2773752E-1,-6.304299E-2,9.421051E-2,-7.5236596E-2],"split_indices":[1,3,3,6,1,0,1,7,6,0,7,3,0,0,2,0,0,0,0,0,0,0,0,0,0],"split_type":[0,0,0,0,0,0,0,0,0,0,0,0,0,0,0,0,0,0,0,0,0,0,0,0,0],"sum_hessian":[1.1848342E2,5.8065777E1,6.0417645E1,4.587295E1,1.2192825E1,5.467597E1,5.741677E0,3.2551834E1,1.33211155E1,1.9786974E0,1.02141285E1,3.2800907E1,2.1875061E1,1.6570926E0,4.084584E0,1.7201202E1,1.5350633E1,1.0581508E1,2.7396076E0,8.791273E0,1.4228551E0,8.824733E0,2.3976175E1,1.209729E0,2.874855E0],"tree_param":{"num_deleted":"0","num_feature":"8","num_nodes":"25","size_leaf_vector":"0"}},{"base_weights":[-3.6307117E-1,6.606431E-2,-1.021395E0,-2.5330436E-1,7.35045E-1,-1.0990644E0,3.842992E-1,-7.3429026E-2,-8.6414117E-1,9.058827E-1,-2.8843263E-1,-8.5405344E-1,-1.3302366E0,-5.865958E-1,1.19609125E-1,-3.1078625E-1,-1.1381977E0,2.985144E-1,1.1567076E0,-8.505368E-1,2.1392201E-1,-9.493007E-1,5.743284E-1],"categories":[],"categories_nodes":[],"categories_segments":[],"categories_sizes":[],"default_left":[true,true,true,true,true,true,false,true,false,true,true,true,false,false,false,false,false,false,false,false,false,false,false],"id":6,"left_children":[1,3,5,7,9,11,-1,13,15,17,19,21,-1,-1,-1,-1,-1,-1,-1,-1,-1,-1,-1],"loss_changes":[3.3136574E1,1.5526687E1,5.472248E0,5.358165E0,4.362838E0,1.3611717E0,0E0,3.9544961E0,1.3344536E0,2.7539463E0,1.343627E0,3.8373413E0,0E0,0E0,0E0,0E0,0E0,0E0,0E0,0E0,0E0,0E0,0E0],"parents":[2147483647,0,0,1,1,2,2,3,3,4,4,5,5,7,7,8,8,9,9,10,10,11,11],"right_children":[2,4,6,8,10,12,-1,14,16,18,20,22,-1,-1,-1,-1,-1,-1,-1,-1,-1,-1,-1],"split_conditions":[4.3497604E1,3.1399152E0,4.061024E0,1.038103E2,1.0882148E2,1.16347824E2,3.842992E-2,-2.3558447E1,2.3015652E0,-2.2335388E1,6.004078E-2,1.1177642E2,-1.3302366E-1,-5.865958E-2,1.19609125E-2,-3.1078625E-2,-1.1381977E-1,2.985144E-2,1.1567076E-1,-8.505368E-2,2.1392202E-2,-9.4930075E-2,5.743284E-2],"split_indices":[1,3,3,0,0,0,0,1,3,1,6,0,0,0,0,0,0,0,0,0,0,0,0],"split_type":[0,0,0,0,0,0,0,0,0,0,0,0,0,0,0,0,0,0,0,0,0,0,0],"sum_hessian":[1.16054565E2,7.080149E1,4.525307E1,4.8343742E1,2.245775E1,4.309032E1,2.1627507E0,3.821163E1,1.013211E1,1.9343803E1,3.113947E0,2.319803E1,1.989229E1,9.887705E0,2.8323929E1,4.0628076E0,6.069302E0,6.293743E0,1.305006E1,1.1424806E0,1.9714664E0,2.2062275E1,1.1357545E0],"tree_param":{"num_deleted":"0","num_feature":"8","num_nodes":"23","size_leaf_vector":"0"}},{"base_weights":[-3.372054E-1,1.6884707E-1,-8.427265E-1,-4.1128244E-2,9.3761045E-1,-9.6653986E-1,2.7039978E-1,2.475252E-1,-3.7303174E-1,6.785723E-3,1.0444314E0,-7.356287E-1,-1.283584E0,9.3470216E-1,-1.274191E-1,1.5345878E-2,9.6022475E-1,-6.3494664E-1,2.9670838E-1,1.1596403E0,3.315377E-1,-5.6720376E-1,-1.3302765E0,8.828728E-1,-6.7531365E-1],"categories":[],"categories_nodes":[],"categories_segments":[],"categories_sizes":[],"default_left":[true,true,true,true,true,true,true,true,true,false,true,true,false,false,false,false,false,false,false,false,false,false,false,false,false],"id":7,"left_children":[1,3,5,7,9,11,13,15,17,-1,19,21,-1,-1,23,-1,-1,-1,-1,-1,-1,-1,-1,-1,-1],"loss_changes":[2.9414604E1,9.403533E0,8.173542E0,4.549875E0,1.2346659E0,2.8539696E0,1.84424E0,4.202551E0,4.0547314E0,0E0,5.3510857E-1,2.4865303E0,0E0,0E0,3.3433468E0,0E0,0E0,0E0,0E0,0E0,0E0,0E0,0E0,0E0,0E0],"parents":[2147483647,0,0,1,1,2,2,3,3,4,4,5,5,6,6,7,7,8,8,10,10,11,11,14,14],"right_children":[2,4,6,8,10,12,14,16,18,-1,20,22,-1,-1,24,-1,-1,-1,-1,-1,-1,-1,-1,-1,-1],"split_conditions":[2.1664711E1,3.4978762E0,3.669255E0,8.178827E1,-5.354614E-1,1.2033133E2,4.1587486E1,7.54281E1,4.7702026E-1,6.785723E-4,1.0423717E0,1.7863587E-1,-1.2835841E-1,9.3470216E-2,-1.9956055E0,1.5345878E-3,9.602248E-2,-6.349467E-2,2.9670838E-2,1.1596403E-1,3.315377E-2,-5.6720376E-2,-1.3302766E-1,8.828729E-2,-6.753137E-2],"split_indices":[1,3,3,0,4,0,1,0,4,0,4,6,0,0,2,0,0,0,0,0,0,0,0,0,0],"split_type":[0,0,0,0,0,0,0,0,0,0,0,0,0,0,0,0,0,0,0,0,0,0,0,0,0],"sum_hessian":[1.1342533E2,5.7015697E1,5.6409634E1,4.5527184E1,1.1488514E1,5.0881733E1,5.5278993E0,2.4486084E1,2.10411E1,1.2921759E0,1.0196339E1,3.1361004E1,1.952073E1,1.5649997E0,3.9628994E0,1.9239784E1,5.246299E0,1.5163189E1,5.8779097E0,8.238302E0,1.9580364E0,2.5961617E1,5.3993874E0,1.178468E0,2.7844315E0],"tree_param":{"num_deleted":"0","num_feature":"8","num_nodes":"25","size_leaf_vector":"0"}},{"base_weights":[-3.1104082E-1,1.5731038E-1,-7.918034E-1,-3.5793304E-2,8.814377E-1,-9.1159916E-1,2.6601985E-1,-5.8725715E-1,1.2218334E-1,1.22933075E-1,1.0139484E0,-6.831172E-1,-1.2395704E0,8.9515483E-1,-1.12223975E-1,-1.0778342E0,1.4127997E-2,1.0599926E0,-1.995915E-2,1.134756E0,1.3654494E-1,-1.138231E0,-4.8230144E-1,8.4557444E-1,-6.3387966E-1],"categories":[],"categories_nodes":[],"categories_segments":[],"categories_sizes":[],"default_left":[true,true,true,true,true,true,true,true,true,false,true,false,false,false,false,false,false,false,false,false,false,false,false,false,false],"id":8,"left_children":[1,3,5,7,9,11,13,15,17,-1,19,21,-1,-1,23,-1,-1,-1,-1,-1,-1,-1,-1,-1,-1],"loss_changes":[2.5318913E1,8.073563E0,7.260456E0,4.111008E0,1.0962458E0,2.8979454E0,1.6252961E0,3.1120265E0,4.935808E0,0E0,9.2649174E-1,2.34651E0,0E0,0E0,2.9794533E0,0E0,0E0,0E0,0E0,0E0,0E0,0E0,0E0,0E0,0E0],"parents":[2147483647,0,0,1,1,2,2,3,3,4,4,5,5,6,6,7,7,8,8,10,10,11,11,14,14],"right_children":[2,4,6,8,10,12,14,16,18,-1,20,22,-1,-1,24,-1,-1,-1,-1,-1,-1,-1,-1,-1,-1],"split_conditions":[2.1664711E1,3.4978762E0,3.669255E0,-3.609749E-1,-3.2728657E1,1.2033133E2,4.1587486E1,6.577861E1,-1.9996479E-1,1.2293308E-2,7.991491E1,2.032041E0,-1.2395704E-1,8.9515485E-2,-1.9956055E0,-1.0778343E-1,1.4127997E-3,1.0599925E-1,-1.995915E-3,1.134756E-1,1.3654495E-2,-1.1382311E-1,-4.8230145E-2,8.4557444E-2,-6.338797E-2],"split_indices":[1,3,3,6,1,0,1,7,6,0,7,3,0,0,2,0,0,0,0,0,0,0,0,0,0],"split_type":[0,0,0,0,0,0,0,0,0,0,0,0,0,0,0,0,0,0,0,0,0,0,0,0,0],"sum_hessian":[1.1089249E2,5.65121E1,5.438039E1,4.5365112E1,1.1146986E1,4.8972603E1,5.407788E0,9.496706E0,3.586841E1,1.9444549E0,9.202531E0,3.0681276E1,1.8291325E1,1.5173552E0,3.8904328E0,4.793874E0,4.702832E0,3.8710756E0,3.1997332E1,7.8309903E0,1.3715408E0,7.96407E0,2.2717207E1,1.1528223E0,2.7376106E0],"tree_param":{"num_deleted":"0","num_feature":"8","num_nodes":"25","size_leaf_vector":"0"}},{"base_weights":[-2.877391E-1,6.012405E-2,-8.6951953E-1,-1.944236E-1,6.182426E-1,3.8523617E-1,-9.520897E-1,-7.636714E-1,-3.3492092E-2,7.768016E-1,-2.8965837E-1,6.324086E-1,-3.853115E-2,-1.0107349E0,-3.1623653E-1,-2.1635026E-2,-1.0418928E0,-1.1738057E0,5.6984615E-2,1.8128219E-1,1.0443732E0,-7.868683E-1,1.5899894E-1,-5.882396E-1,-1.1116493E0,-9.358177E-1,5.5042076E-1],"categories":[],"categories_nodes":[],"categories_segments":[],"categories_sizes":[],"default_left":[true,true,false,true,true,true,true,true,true,true,true,false,false,true,true,false,false,false,false,false,false,false,false,false,false,false,false],"id":9,"left_children":[1,3,5,7,9,11,13,15,17,19,21,-1,-1,23,25,-1,-1,-1,-1,-1,-1,-1,-1,-1,-1,-1,-1],"loss_changes":[2.2169048E1,9.969191E0,4.6101894E0,4.4057856E0,3.385398E0,3.6381632E-1,1.1240997E0,2.1690001E0,4.0654936E0,2.8320675E0,1.0157346E0,0E0,0E0,8.3799744E-1,3.0520759E0,0E0,0E0,0E0,0E0,0E0,0E0,0E0,0E0,0E0,0E0,0E0,0E0],"parents":[2147483647,0,0,1,1,2,2,3,3,4,4,5,5,6,6,7,7,8,8,9,9,10,10,13,13,14,14],"right_children":[2,4,6,8,10,12,14,16,18,20,22,-1,-1,24,26,-1,-1,-1,-1,-1,-1,-1,-1,-1,-1,-1,-1],"split_conditions":[4.3497604E1,3.1399152E0,-2.5427246E0,-5.2612543E-1,1.0882148E2,7.415199E-1,1.9469991E0,7.630671E1,1.7125642E-1,-2.2335388E1,6.004078E-2,6.324086E-2,-3.853115E-3,7.339023E1,1.034668E0,-2.1635026E-3,-1.0418928E-1,-1.17380574E-1,5.6984616E-3,1.812822E-2,1.04437314E-1,-7.8686826E-2,1.5899895E-2,-5.882396E-2,-1.1116493E-1,-9.358177E-2,5.5042077E-2],"split_indices":[1,3,2,6,0,4,4,0,5,1,6,0,0,0,2,0,0,0,0,0,0,0,0,0,0,0,0],"split_type":[0,0,0,0,0,0,0,0,0,0,0,0,0,0,0,0,0,0,0,0,0,0,0,0,0,0,0],"sum_hessian":[1.08283394E2,6.832599E1,3.9957405E1,4.7372093E1,2.0953897E1,2.2407596E0,3.771665E1,9.61534E0,3.7756752E1,1.7961447E1,2.9924505E0,1.1043009E0,1.1364588E0,3.3991974E1,3.724674E0,2.9159791E0,6.699361E0,1.8953493E0,3.5861404E1,6.08838E0,1.1873067E1,1.0618551E0,1.9305955E0,7.870381E0,2.6121592E1,2.1254027E0,1.5992712E0],"tree_param":{"num_deleted":"0","num_feature":"8","num_nodes":"27","size_leaf_vector":"0"}},{"base_weights":[-2.6882017E-1,1.375747E-1,-7.0927274E-1,-3.0955546E-2,8.028919E-1,-7.9426473E-1,5.583851E-1,4.4006127E-1,-2.0576045E-1,-7.480187E-2,9.1411185E-1,-5.642675E-1,-1.1771698E0,9.502581E-1,-1.9627428E-1,6.57553E-1,-9.2750365E-1,-7.95637E-1,1.6093142E-1,1.0344205E0,2.3258376E-1,-8.9912343E-1,-3.0124503E-1],"categories":[],"categories_nodes":[],"categories_segments":[],"categories_sizes":[],"default_left":[true,true,true,false,true,true,true,true,true,false,true,true,false,false,false,false,false,false,false,false,false,false,false],"id":10,"left_children":[1,3,5,7,9,11,13,15,17,-1,19,21,-1,-1,-1,-1,-1,-1,-1,-1,-1,-1,-1],"loss_changes":[1.9201008E1,6.3426924E0,5.9790764E0,3.871466E0,1.1836786E0,3.6125755E0,1.3148719E0,4.401557E0,7.5196834E0,0E0,5.970545E-1,2.5704327E0,0E0,0E0,0E0,0E0,0E0,0E0,0E0,0E0,0E0,0E0,0E0],"parents":[2147483647,0,0,1,1,2,2,3,3,4,4,5,5,6,6,7,7,8,8,10,10,11,11],"right_children":[2,4,6,8,10,12,14,16,18,-1,20,22,-1,-1,-1,-1,-1,-1,-1,-1,-1,-1,-1],"split_conditions":[2.1664711E1,3.4978762E0,4.0307026E0,2.2012E0,-5.354614E-1,1.2033133E2,6.471056E1,1.0314396E2,2.651675E0,-7.480187E-3,1.0423717E0,2.032041E0,-1.1771698E-1,9.502581E-2,-1.9627428E-2,6.57553E-2,-9.275036E-2,-7.95637E-2,1.6093142E-2,1.0344205E-1,2.3258377E-2,-8.991235E-2,-3.0124504E-2],"split_indices":[1,3,3,3,4,0,7,7,3,0,4,3,0,0,0,0,0,0,0,0,0,0,0],"split_type":[0,0,0,0,0,0,0,0,0,0,0,0,0,0,0,0,0,0,0,0,0,0,0],"sum_hessian":[1.0572447E2,5.534585E1,5.0378616E1,4.4920578E1,1.0425274E1,4.7563118E1,2.815501E0,1.1747949E1,3.3172626E1,1.2093232E0,9.215951E0,3.1260008E1,1.6303108E1,1.6825914E0,1.1329097E0,1.0583908E1,1.1640404E0,1.2268006E1,2.0904621E1,7.3930726E0,1.8228784E0,1.2688173E1,1.8571836E1],"tree_param":{"num_deleted":"0","num_feature":"8","num_nodes":"23","size_leaf_vector":"0"}},{"base_weights":[-2.4958003E-1,5.156416E-2,-7.855022E-1,-1.6758709E-1,5.4699284E-1,3.7599638E-1,-8.678887E-1,-1.169108E0,-8.749435E-2,7.002748E-1,-3.0079758E-1,6.07283E-1,-2.818606E-2,-6.3662213E-1,-1.111155E0,-2.6145E-1,4.1558394E-1,1.1943961E-1,9.761492E-1,-7.244013E-1,1.4980347E-1,8.008583E-2,-7.8148705E-1,-3.1696522E-1,-1.1487635E0],"categories":[],"categories_nodes":[],"categories_segments":[],"categories_sizes":[],"default_left":[true,true,false,true,true,true,true,false,true,true,true,false,false,true,false,false,false,false,false,false,false,false,false,false,false],"id":11,"left_children":[1,3,5,7,9,11,13,-1,15,17,19,-1,-1,21,23,-1,-1,-1,-1,-1,-1,-1,-1,-1,-1],"loss_changes":[1.6875803E1,7.4447823E0,3.9233723E0,3.7255392E0,2.9402165E0,3.1508392E-1,1.2843361E0,0E0,4.070134E0,2.7819376E0,8.5593426E-1,0E0,0E0,2.1900244E0,1.11148834E-1,0E0,0E0,0E0,0E0,0E0,0E0,0E0,0E0,0E0,0E0],"parents":[2147483647,0,0,1,1,2,2,3,3,4,4,5,5,6,6,8,8,9,9,10,10,13,13,14,14],"right_children":[2,4,6,8,10,12,14,-1,16,18,20,-1,-1,22,24,-1,-1,-1,-1,-1,-1,-1,-1,-1,-1],"split_conditions":[4.3497604E1,3.1399152E0,-2.5427246E0,1.7125642E-1,1.0882148E2,7.415199E-1,1.16347824E2,-1.1691081E-1,4.0946501E-1,-2.2335388E1,6.121759E1,6.07283E-2,-2.818606E-3,-6.3449895E-1,-1.7918701E0,-2.6145E-2,4.1558396E-2,1.19439615E-2,9.761492E-2,-7.244013E-2,1.4980348E-2,8.008583E-3,-7.814871E-2,-3.1696524E-2,-1.1487635E-1],"split_indices":[1,3,2,5,0,4,0,0,6,1,7,0,0,6,2,0,0,0,0,0,0,0,0,0,0],"split_type":[0,0,0,0,0,0,0,0,0,0,0,0,0,0,0,0,0,0,0,0,0,0,0,0,0],"sum_hessian":[1.0331448E2,6.6724556E1,3.658993E1,4.67199E1,2.000466E1,2.187427E0,3.4402504E1,2.4527326E0,4.4267166E1,1.7088947E1,2.9157114E0,1.0716792E0,1.1157478E0,1.9490448E1,1.4912054E1,3.325015E1,1.1017017E1,5.964351E0,1.1124597E1,1.1896782E0,1.7260332E0,3.3523116E0,1.6138138E1,1.1004997E0,1.3811555E1],"tree_param":{"num_deleted":"0","num_feature":"8","num_nodes":"25","size_leaf_vector":"0"}},{"base_weights":[-2.3225921E-1,1.2157275E-1,-6.3735616E-1,-2.5371665E-2,7.2961277E-1,-7.4913883E-1,2.772749E-1,-2.0050222E-1,3.822037E-1,-1.05891876E-1,8.425804E-1,-5.280401E-1,-1.122009E0,8.3223444E-1,-5.5996742E-2,-5.4547757E-1,1.9738168E-1,6.477162E-1,-7.0814896E-1,9.647665E-1,1.8822272E-1,-3.5325223E-1,-1.1781971E0,-6.9427085E-1,6.042265E-1],"categories":[],"categories_nodes":[],"categories_segments":[],"categories_sizes":[],"default_left":[true,true,true,true,true,true,false,true,true,false,true,true,false,false,false,false,false,false,false,false,false,false,false,false,false],"id":12,"left_children":[1,3,5,7,9,11,13,15,17,-1,19,21,-1,-1,23,-1,-1,-1,-1,-1,-1,-1,-1,-1,-1],"loss_changes":[1.4704578E1,4.9603653E0,5.088373E0,3.3251848E0,1.1084614E0,2.93672E0,1.1431363E0,4.567108E0,4.518196E0,0E0,5.878973E-1,2.8523588E0,0E0,0E0,2.3753078E0,0E0,0E0,0E0,0E0,0E0,0E0,0E0,0E0,0E0,0E0],"parents":[2147483647,0,0,1,1,2,2,3,3,4,4,5,5,6,6,7,7,8,8,10,10,11,11,14,14],"right_children":[2,4,6,8,10,12,14,16,18,-1,20,22,-1,-1,24,-1,-1,-1,-1,-1,-1,-1,-1,-1,-1],"split_conditions":[2.1664711E1,3.4978762E0,3.669255E0,4.0869224E-1,-5.354614E-1,1.2033133E2,-1.9956055E0,5.880543E1,8.9774513E-1,-1.0589188E-2,1.0423717E0,1.7863587E-1,-1.1220091E-1,8.322345E-2,2.0671387E0,-5.4547757E-2,1.9738168E-2,6.477162E-2,-7.08149E-2,9.647665E-2,1.8822273E-2,-3.5325225E-2,-1.1781972E-1,-6.942709E-2,6.0422655E-2],"split_indices":[1,3,3,6,4,0,2,7,6,0,4,6,0,0,2,0,0,0,0,0,0,0,0,0,0],"split_type":[0,0,0,0,0,0,0,0,0,0,0,0,0,0,0,0,0,0,0,0,0,0,0,0,0],"sum_hessian":[1.0104741E2,5.4310123E1,4.673729E1,4.451138E1,9.798746E0,4.1808548E1,4.928739E0,3.148898E1,1.3022399E1,1.174538E0,8.624208E0,2.776252E1,1.404603E1,1.2875547E0,3.6411846E0,1.6667173E1,1.4821805E1,1.0798745E1,2.223653E0,6.8674917E0,1.7567167E0,2.309658E1,4.665939E0,1.825146E0,1.8160385E0],"tree_param":{"num_deleted":"0","num_feature":"8","num_nodes":"25","size_leaf_vector":"0"}},{"base_weights":[-2.153641E-1,-5.3706676E-2,-1.0472405E0,-2.4167848E-1,4.3602002E-1,-1.1063906E0,-1.08409815E-1,-1.1784395E0,-1.587212E-1,2.3924533E-1,1.1806669E0,5.150697E-1,-2.5473842E-1,-1.431503E-1,6.257997E-1],"categories":[],"categories_nodes":[],"categories_segments":[],"categories_sizes":[],"default_left":[true,true,true,true,false,false,false,false,false,true,false,false,false,false,false],"id":13,"left_children":[1,3,5,7,9,-1,-1,-1,11,13,-1,-1,-1,-1,-1],"loss_changes":[1.3382025E1,7.9045496E0,7.7996635E-1,4.620716E0,3.213109E0,0E0,0E0,0E0,3.8828778E0,3.0642262E0,0E0,0E0,0E0,0E0,0E0],"parents":[2147483647,0,0,1,1,2,2,3,3,4,4,8,8,9,9],"right_children":[2,4,6,8,10,-1,-1,-1,12,14,-1,-1,-1,-1,-1],"split_conditions":[1.2308887E2,3.142003E0,3.8078685E0,1.7125642E-1,2.7763672E0,-1.1063906E-1,-1.0840981E-2,-1.1784395E-1,-1.918335E0,4.4497214E-2,1.1806669E-1,5.1506974E-2,-2.5473842E-2,-1.4315031E-2,6.2579975E-2],"split_indices":[0,3,3,5,2,0,0,0,2,6,0,0,0,0,0],"split_type":[0,0,0,0,0,0,0,0,0,0,0,0,0,0,0],"sum_hessian":[9.89284E1,8.372315E1,1.5205246E1,6.0867054E1,2.2856098E1,1.4136135E1,1.0691111E0,3.8774264E0,5.6989628E1,1.912386E1,3.7322378E0,6.563887E0,5.042574E1,9.930185E0,9.193675E0],"tree_param":{"num_deleted":"0","num_feature":"8","num_nodes":"15","size_leaf_vector":"0"}},{"base_weights":[-1.9831312E-1,5.4526724E-2,-6.878362E-1,-3.4862816E-2,9.499209E-1,3.6701077E-1,-7.705531E-1,1.4667054E-1,-4.5379594E-1,2.6172695E-1,1.062829E0,5.6756634E-1,-8.0587715E-3,-5.497251E-1,-1.0362241E0,-4.3471077E-1,4.1168436E-1,-6.39882E-1,3.9642456E-1,-6.4917177E-1,3.687155E-1,-2.820567E-1,-1.0787556E0],"categories":[],"categories_nodes":[],"categories_segments":[],"categories_sizes":[],"default_left":[true,true,false,true,true,true,true,true,true,false,false,false,false,true,true,false,false,false,false,false,false,false,false],"id":14,"left_children":[1,3,5,7,9,11,13,15,17,-1,-1,-1,-1,19,21,-1,-1,-1,-1,-1,-1,-1,-1],"loss_changes":[1.2188382E1,5.2886734E0,3.2066488E0,4.6802964E0,1.8770647E-1,2.3881602E-1,1.2722759E0,6.816751E0,3.1940942E0,0E0,0E0,0E0,0E0,1.9998379E0,1.1659527E-1,0E0,0E0,0E0,0E0,0E0,0E0,0E0,0E0],"parents":[2147483647,0,0,1,1,2,2,3,3,4,4,5,5,6,6,7,7,8,8,13,13,14,14],"right_children":[2,4,6,8,10,12,14,16,18,-1,-1,-1,-1,20,22,-1,-1,-1,-1,-1,-1,-1,-1],"split_conditions":[4.3497604E1,4.008183E0,-2.5427246E0,9.572951E1,-2.2448154E-2,7.415199E-1,1.16347824E2,-2.1892826E1,6.135996E-1,2.6172696E-2,1.06282905E-1,5.6756634E-2,-8.0587715E-4,1.0817967E2,-1.4306183E0,-4.347108E-2,4.1168436E-2,-6.39882E-2,3.9642457E-2,-6.491718E-2,3.687155E-2,-2.8205669E-2,-1.0787556E-1],"split_indices":[1,3,2,0,6,4,0,1,6,0,0,0,0,0,4,0,0,0,0,0,0,0,0],"split_type":[0,0,0,0,0,0,0,0,0,0,0,0,0,0,0,0,0,0,0,0,0,0,0],"sum_hessian":[9.717228E1,6.4662544E1,3.2509743E1,5.96669E1,4.9956384E0,2.1140003E0,3.0395742E1,4.208179E1,1.7585112E1,1.1717396E0,3.8238988E0,1.0430406E0,1.0709597E0,1.8274784E1,1.2120957E1,1.2975687E1,2.9106102E1,1.4630383E1,2.9547305E0,1.6753893E1,1.5208919E0,1.0544891E0,1.1066468E1],"tree_param":{"num_deleted":"0","num_feature":"8","num_nodes":"23","size_leaf_vector":"0"}},{"base_weights":[-1.826679E-1,-3.977031E-2,-9.9329835E-1,-1.2004942E-1,8.9961934E-1,-1.0579814E0,-8.003365E-2,3.5061747E-2,-5.408341E-1,1.0879548E0,-4.3562297E-2,-4.2361623E-1,1.8626732E-1,-8.955328E-1,-1.9181348E-1],"categories":[],"categories_nodes":[],"categories_segments":[],"categories_sizes":[],"default_left":[true,true,true,true,true,false,false,true,true,false,false,false,false,false,false],"id":15,"left_children":[1,3,5,7,9,-1,-1,11,13,-1,-1,-1,-1,-1,-1],"loss_changes":[1.1110214E1,6.3575325E0,7.649689E-1,5.0595245E0,1.2272711E0,0E0,0E0,4.057559E0,2.4108129E0,0E0,0E0,0E0,0E0,0E0,0E0],"parents":[2147483647,0,0,1,1,2,2,3,3,4,4,7,7,8,8],"right_children":[2,4,6,8,10,-1,-1,12,14,-1,-1,-1,-1,-1,-1],"split_conditions":[1.2308887E2,4.0307026E0,3.8078685E0,4.3497604E1,8.851915E-1,-1.0579814E-1,-8.003365E-3,-2.3558447E1,7.485152E1,1.0879548E-1,-4.3562297E-3,-4.2361625E-2,1.8626733E-2,-8.955328E-2,-1.9181348E-2],"split_indices":[0,3,3,1,5,0,0,1,7,0,0,0,0,0,0],"split_type":[0,0,0,0,0,0,0,0,0,0,0,0,0,0,0],"sum_hessian":[9.525339E1,8.187038E1,1.3383014E1,7.622821E1,5.6421657E0,1.2349861E1,1.033153E0,5.6366768E1,1.9861443E1,4.5751095E0,1.0670562E0,1.3528089E1,4.2838676E1,9.07399E0,1.0787454E1],"tree_param":{"num_deleted":"0","num_feature":"8","num_nodes":"15","size_leaf_vector":"0"}},{"base_weights":[-1.6944279E-1,-3.658576E-2,-9.629987E-1,-1.9940226E-1,3.9769548E-1,-9.903014E-2,-1.0401988E0,-1.1104509E0,-1.2211012E-1,2.1903133E-1,1.1082443E0,5.1542103E-1,-2.0847064E-1,7.067068E-1,-4.377582E-2],"categories":[],"categories_nodes":[],"categories_segments":[],"categories_sizes":[],"default_left":[true,true,false,true,false,false,false,false,false,false,false,false,false,false,false],"id":16,"left_children":[1,3,5,7,9,-1,-1,-1,11,13,-1,-1,-1,-1,-1],"loss_changes":[9.931683E0,5.878667E0,7.986193E-1,4.111924E0,2.6388512E0,0E0,0E0,0E0,3.230641E0,2.5153189E0,0E0,0E0,0E0,0E0,0E0],"parents":[2147483647,0,0,1,1,2,2,3,3,4,4,8,8,9,9],"right_children":[2,4,6,8,10,-1,-1,-1,12,14,-1,-1,-1,-1,-1],"split_conditions":[1.2308887E2,3.142003E0,-2.2519531E0,1.7125642E-1,2.7763672E0,-9.903014E-3,-1.0401988E-1,-1.11045085E-1,-1.9833984E0,-2.0178223E0,1.1082443E-1,5.1542103E-2,-2.0847065E-2,7.067069E-2,-4.377582E-3],"split_indices":[0,3,2,5,2,0,0,0,2,2,0,0,0,0,0],"split_type":[0,0,0,0,0,0,0,0,0,0,0,0,0,0,0],"sum_hessian":[9.353632E1,8.101835E1,1.2517978E1,5.931965E1,2.16987E1,1.2140443E0,1.1303934E1,3.5936832E0,5.5725964E1,1.8384308E1,3.3143911E0,6.055412E0,4.967055E1,5.8464084E0,1.25379E1],"tree_param":{"num_deleted":"0","num_feature":"8","num_nodes":"15","size_leaf_vector":"0"}},{"base_weights":[-1.5557277E-1,1.1558555E-1,-5.0766116E-1,-7.510616E-2,4.1899052E-1,-3.1068584E-1,-9.818071E-1,2.29285E-1,-5.968601E-1,8.6534953E-1,-1.6256943E-2,-9.2121243E-1,-1.2196195E-1,-2.5967494E-1,-1.0303934E0,-8.083209E-2,9.003812E-1,1.3712333E-1,-1.1524036E0,1.0021616E0,-1.4504933E-1,-6.684266E-1,5.125631E-1,-1.0795536E-1,-1.0396883E0,-4.2892414E-1,3.5147884E-1],"categories":[],"categories_nodes":[],"categories_segments":[],"categories_sizes":[],"default_left":[true,true,true,true,true,false,true,true,true,true,true,true,true,false,false,false,false,false,false,false,false,false,false,false,false,false,false],"id":17,"left_children":[1,3,5,7,9,11,13,15,17,19,21,23,25,-1,-1,-1,-1,-1,-1,-1,-1,-1,-1,-1,-1,-1,-1],"loss_changes":[8.940182E0,3.1191869E0,3.4923468E0,5.4761786E0,4.045107E0,3.3660157E0,1.348877E-1,4.641982E0,5.3220897E0,1.5639505E0,4.3041816E0,5.598817E-1,3.6695864E0,0E0,0E0,0E0,0E0,0E0,0E0,0E0,0E0,0E0,0E0,0E0,0E0,0E0,0E0],"parents":[2147483647,0,0,1,1,2,2,3,3,4,4,5,5,6,6,7,7,8,8,9,9,10,10,11,11,12,12],"right_children":[2,4,6,8,10,12,14,16,18,20,22,24,26,-1,-1,-1,-1,-1,-1,-1,-1,-1,-1,-1,-1,-1,-1],"split_conditions":[2.1664711E1,5.8986618E1,1.2033133E2,8.182616E1,7.346125E1,2.032041E0,6.110019E1,3.0802493E0,4.4148815E1,1.1626161E2,6.839511E-1,-1.1586914E0,7.6881714E1,-2.5967494E-2,-1.0303934E-1,-8.083208E-3,9.003812E-2,1.37123335E-2,-1.1524036E-1,1.00216165E-1,-1.4504934E-2,-6.684266E-2,5.125631E-2,-1.0795536E-2,-1.0396884E-1,-4.2892415E-2,3.5147887E-2],"split_indices":[1,7,0,0,7,3,7,3,7,0,5,4,7,0,0,0,0,0,0,0,0,0,0,0,0,0,0],"split_type":[0,0,0,0,0,0,0,0,0,0,0,0,0,0,0,0,0,0,0,0,0,0,0,0,0,0,0],"sum_hessian":[9.20276E1,5.236827E1,3.9659332E1,3.261931E1,1.974896E1,2.9188679E1,1.0470653E1,2.095482E1,1.1664489E1,9.262163E0,1.0486797E1,5.975739E0,2.321294E1,1.0600371E0,9.410615E0,1.49335165E1,6.021304E0,5.349675E0,6.314813E0,8.164773E0,1.0973907E0,4.5775356E0,5.909262E0,1.0028753E0,4.972864E0,1.413945E1,9.073489E0],"tree_param":{"num_deleted":"0","num_feature":"8","num_nodes":"27","size_leaf_vector":"0"}},{"base_weights":[-1.4515772E-1,-2.9614564E-2,-9.0797365E-1,-1.0211021E-1,8.5651064E-1,-6.6413574E-2,-9.915169E-1,4.4864643E-1,-2.2119167E-1,1.126866E0,-8.171809E-3,-1.0388477E0,-2.7698675E-1,-2.9007474E-2,9.0507936E-1,-1.4018576E-1,-8.998739E-1],"categories":[],"categories_nodes":[],"categories_segments":[],"categories_sizes":[],"default_left":[true,true,false,false,true,false,true,true,true,false,false,false,false,false,false,false,false],"id":18,"left_children":[1,3,5,7,9,-1,11,13,15,-1,-1,-1,-1,-1,-1,-1,-1],"loss_changes":[8.032133E0,5.2550726E0,7.774229E-1,5.034639E0,1.4562407E0,0E0,7.882881E-2,3.0148895E0,3.3123395E0,0E0,0E0,0E0,0E0,0E0,0E0,0E0,0E0],"parents":[2147483647,0,0,1,1,2,2,3,3,4,4,6,6,7,7,8,8],"right_children":[2,4,6,8,10,-1,12,14,16,-1,-1,-1,-1,-1,-1,-1,-1],"split_conditions":[1.2308887E2,2.7373047E0,-2.2519531E0,-1.9833984E0,9.392047E1,-6.6413577E-3,6.049478E-1,5.898533E-1,1.06163475E2,1.126866E-1,-8.171809E-4,-1.0388477E-1,-2.7698675E-2,-2.9007473E-3,9.050794E-2,-1.4018576E-2,-8.998739E-2],"split_indices":[0,2,2,2,0,0,6,5,7,0,0,0,0,0,0,0,0],"split_type":[0,0,0,0,0,0,0,0,0,0,0,0,0,0,0,0,0],"sum_hessian":[9.043625E1,7.944204E1,1.0994205E1,7.42521E1,5.189942E0,1.1549505E0,9.839254E0,1.270827E1,6.154383E1,3.722756E0,1.4671862E0,8.802297E0,1.036958E0,6.6673656E0,6.040905E0,5.605928E1,5.4845476E0],"tree_param":{"num_deleted":"0","num_feature":"8","num_nodes":"17","size_leaf_vector":"0"}},{"base_weights":[-1.3337809E-1,-2.5628194E-2,-8.81709E-1,-9.279195E-2,8.074229E-1,-6.293721E-2,-9.6836555E-1,4.1525587E-1,-2.0204309E-1,1.0696824E0,-7.685166E-3,-1.0183799E0,-2.64521E-1,-5.0196046E-1,6.1172855E-1,-1.2671204E-1,-8.5472184E-1],"categories":[],"categories_nodes":[],"categories_segments":[],"categories_sizes":[],"default_left":[true,true,false,false,true,false,true,true,true,false,false,false,false,false,false,false,false],"id":19,"left_children":[1,3,5,7,9,-1,11,13,15,-1,-1,-1,-1,-1,-1,-1,-1],"loss_changes":[7.24401E0,4.540193E0,7.417288E-1,4.232866E0,1.3031034E0,0E0,8.829594E-2,2.7500868E0,2.9495373E0,0E0,0E0,0E0,0E0,0E0,0E0,0E0,0E0],"parents":[2147483647,0,0,1,1,2,2,3,3,4,4,6,6,7,7,8,8],"right_children":[2,4,6,8,10,-1,12,14,16,-1,-1,-1,-1,-1,-1,-1,-1],"split_conditions":[1.2308887E2,2.7373047E0,-2.2519531E0,-1.9833984E0,9.392047E1,-6.293721E-3,6.049478E-1,2.1487051E-1,1.06163475E2,1.0696824E-1,-7.685166E-4,-1.0183799E-1,-2.64521E-2,-5.0196048E-2,6.1172854E-2,-1.2671204E-2,-8.547219E-2],"split_indices":[0,2,2,2,0,0,6,5,7,0,0,0,0,0,0,0,0],"split_type":[0,0,0,0,0,0,0,0,0,0,0,0,0,0,0,0,0],"sum_hessian":[8.911998E1,7.8807045E1,1.031294E1,7.374967E1,5.0573683E0,1.152248E0,9.160692E0,1.2556689E1,6.1192986E1,3.5899794E0,1.467389E0,8.135697E0,1.0249946E0,1.9408996E0,1.0615789E1,5.59316E1,5.261387E0],"tree_param":{"num_deleted":"0","num_feature":"8","num_nodes":"17","size_leaf_vector":"0"}},{"base_weights":[-1.2339455E-1,1.09030314E-1,-4.4398946E-1,-2.6336658E-1,2.658903E-1,-5.4418105E-1,2.8656554E-1,-5.8458143E-1,4.7830117E-1,-5.092154E-1,4.1030917E-1,-3.7519777E-1,-9.752719E-1,7.244391E-1,-1.1571445E-2,-7.7694225E-1,5.951456E-1,8.9595073E-1,-1.9454737E-1,2.5805634E-1,-8.491441E-1,4.9225873E-1,-6.578586E-1,-1.9683722E-1,-1.0794221E0,-5.602569E-1,5.5748284E-1],"categories":[],"categories_nodes":[],"categories_segments":[],"categories_sizes":[],"default_left":[true,true,true,true,true,true,false,true,true,true,true,true,false,false,false,false,false,false,false,false,false,false,false,false,false,false,false],"id":20,"left_children":[1,3,5,7,9,11,13,15,17,19,21,23,-1,-1,25,-1,-1,-1,-1,-1,-1,-1,-1,-1,-1,-1,-1],"loss_changes":[6.669981E0,3.1261594E0,2.9040585E0,4.0933576E0,4.3854094E0,2.0643864E0,6.850202E-1,3.0994656E0,1.6883864E0,1.8638577E0,3.1253276E0,3.0020576E0,0E0,0E0,1.5824503E0,0E0,0E0,0E0,0E0,0E0,0E0,0E0,0E0,0E0,0E0,0E0,0E0],"parents":[2147483647,0,0,1,1,2,2,3,3,4,4,5,5,6,6,7,7,8,8,9,9,10,10,11,11,14,14],"right_children":[2,4,6,8,10,12,14,16,18,20,22,24,-1,-1,26,-1,-1,-1,-1,-1,-1,-1,-1,-1,-1,-1,-1],"split_conditions":[2.1664711E1,-2.3558447E1,3.669255E0,5.9335777E1,-5.343955E-1,1.2033133E2,-1.9956055E0,1.1802673E0,8.1800476E1,8.527005E1,1.6886597E0,1.7863587E-1,-9.752719E-2,7.244391E-2,2.0671387E0,-7.769423E-2,5.951456E-2,8.959507E-2,-1.9454738E-2,2.5805635E-2,-8.491441E-2,4.9225874E-2,-6.578586E-2,-1.9683722E-2,-1.07942216E-1,-5.602569E-2,5.5748284E-2],"split_indices":[1,1,3,7,6,0,2,4,7,0,4,6,0,0,2,0,0,0,0,0,0,0,0,0,0,0,0],"split_type":[0,0,0,0,0,0,0,0,0,0,0,0,0,0,0,0,0,0,0,0,0,0,0,0,0,0,0],"sum_hessian":[8.7863205E1,5.1318348E1,3.654486E1,1.5008379E1,3.6309967E1,3.2361736E1,4.1831226E0,1.0620474E1,4.387905E0,5.3060555E0,3.1003912E1,2.459219E1,7.7695475E0,1.1152579E0,3.0678647E0,9.425085E0,1.1953887E0,2.5027952E0,1.8851099E0,1.7029912E0,3.6030643E0,2.9295523E1,1.708389E0,2.0643316E1,3.9488726E0,1.5697563E0,1.4981085E0],"tree_param":{"num_deleted":"0","num_feature":"8","num_nodes":"27","size_leaf_vector":"0"}},{"base_weights":[-1.15423955E-1,-2.0201236E-2,-8.434516E-1,-1.15669355E-1,5.2075726E-1,-4.239316E-2,-9.3574655E-1,-4.24813E-1,3.2893345E-2,9.730745E-1,2.1230015E-1,-1.0443949E0,-1.5579118E-1,8.093915E-1,-1.19646735E-1,2.085238E-1,1.1399297E0,-8.0340964E-1,7.3819923E-1],"categories":[],"categories_nodes":[],"categories_segments":[],"categories_sizes":[],"default_left":[true,true,false,true,false,false,false,true,true,false,false,false,false,false,false,false,false,false,false],"id":21,"left_children":[1,3,5,7,9,-1,-1,11,13,15,17,-1,-1,-1,-1,-1,-1,-1,-1],"loss_changes":[6.042451E0,4.1051044E0,7.059946E-1,3.1090631E0,1.4579673E0,0E0,0E0,3.4952338E0,5.5981684E0,3.4378147E-1,5.065244E0,0E0,0E0,0E0,0E0,0E0,0E0,0E0,0E0],"parents":[2147483647,0,0,1,1,2,2,3,3,4,4,7,7,8,8,9,9,10,10],"right_children":[2,4,6,8,10,-1,-1,12,14,16,18,-1,-1,-1,-1,-1,-1,-1,-1],"split_conditions":[1.2308887E2,3.5502965E0,-2.2519531E0,-3.603534E-1,3.8576193E0,-4.239316E-3,-9.357466E-2,5.6494995E1,-1.9239408E-1,-2.2893066E0,4.017695E0,-1.0443949E-1,-1.5579118E-2,8.093915E-2,-1.1964674E-2,2.085238E-2,1.1399297E-1,-8.034097E-2,7.381993E-2],"split_indices":[0,3,2,6,3,0,0,7,6,2,3,0,0,0,0,0,0,0,0],"split_type":[0,0,0,0,0,0,0,0,0,0,0,0,0,0,0,0,0,0,0],"sum_hessian":[8.640728E1,7.73217E1,9.08558E0,6.639119E1,1.0930511E1,1.0894247E0,7.9961553E0,2.0945753E1,4.544544E1,3.558186E0,7.372325E0,5.468683E0,1.5477071E1,6.7547264E0,3.8690712E1,1.0404494E0,2.5177367E0,2.3349557E0,5.0373693E0],"tree_param":{"num_deleted":"0","num_feature":"8","num_nodes":"19","size_leaf_vector":"0"}},{"base_weights":[-1.0582823E-1,6.00481E-2,-4.9593285E-1,1.3893964E-2,1.2578073E0,-2.945744E-1,-8.9231944E-1,-5.092534E-1,1.2049859E-1,-3.9861003E-1,7.589056E-1,-2.360844E-1,-9.529136E-1,8.698306E-2,-9.97952E-1,-2.8494683E-1,2.9938892E-1,-4.841731E-1,4.7206715E-1],"categories":[],"categories_nodes":[],"categories_segments":[],"categories_sizes":[],"default_left":[true,true,true,true,false,true,true,false,true,true,false,false,false,false,false,false,false,false,false],"id":22,"left_children":[1,3,5,7,-1,9,11,13,15,17,-1,-1,-1,-1,-1,-1,-1,-1,-1],"loss_changes":[5.610059E0,3.376801E0,1.7993088E0,3.4149675E0,0E0,2.343902E0,1.015172E-1,3.1086028E0,3.767104E0,1.5402839E0,0E0,0E0,0E0,0E0,0E0,0E0,0E0,0E0,0E0],"parents":[2147483647,0,0,1,1,2,2,3,3,5,5,6,6,7,7,8,8,9,9],"right_children":[2,4,6,8,-1,10,12,14,16,18,-1,-1,-1,-1,-1,-1,-1,-1,-1],"split_conditions":[4.3497604E1,4.032855E1,1.16347824E2,-5.2612543E-1,1.2578073E-1,1.1177642E2,-1.0205231E0,2.367096E-1,-2.159716E1,1.385091E2,7.589056E-2,-2.360844E-2,-9.529136E-2,8.698306E-3,-9.97952E-2,-2.8494684E-2,2.9938892E-2,-4.841731E-2,4.7206715E-2],"split_indices":[1,1,0,6,0,0,4,2,1,7,0,0,0,0,0,0,0,0,0],"split_type":[0,0,0,0,0,0,0,0,0,0,0,0,0,0,0,0,0,0,0],"sum_hessian":[8.523636E1,6.039983E1,2.483653E1,5.913282E1,1.2670087E0,1.762596E1,7.2105727E0,9.370646E0,4.9762173E1,1.6607521E1,1.0184377E0,1.0233916E0,6.187181E0,4.5911846E0,4.7794623E0,1.5052844E1,3.4709328E1,1.5525695E1,1.0818266E0],"tree_param":{"num_deleted":"0","num_feature":"8","num_nodes":"19","size_leaf_vector":"0"}},{"base_weights":[-9.703424E-2,-1.1826864E-2,-8.031447E-1,-1.0118771E-1,5.031583E-1,-3.0999385E-2,-9.0147096E-1,-4.6896063E-2,-9.150912E-1,9.3132216E-1,2.098201E-1,-9.742289E-1,-2.892621E-1,-9.823585E-1,-8.574296E-3,1.9206704E-1,1.0978738E0,-7.3994833E-1,7.0945555E-1],"categories":[],"categories_nodes":[],"categories_segments":[],"categories_sizes":[],"default_left":[true,true,false,true,false,false,true,false,false,false,false,false,false,false,false,false,false,false,false],"id":23,"left_children":[1,3,5,7,9,-1,11,13,-1,15,17,-1,-1,-1,-1,-1,-1,-1,-1],"loss_changes":[5.1148996E0,3.5951126E0,6.6720676E-1,2.8938298E0,1.2558832E0,0E0,7.837868E-2,2.26287E0,0E0,3.3175874E-1,4.3915186E0,0E0,0E0,0E0,0E0,0E0,0E0,0E0,0E0],"parents":[2147483647,0,0,1,1,2,2,3,3,4,4,6,6,7,7,9,9,10,10],"right_children":[2,4,6,8,10,-1,12,14,-1,16,18,-1,-1,-1,-1,-1,-1,-1,-1],"split_conditions":[1.2308887E2,3.5502965E0,-2.2519531E0,1.9186443E2,3.8576193E0,-3.0999386E-3,8.97339E-1,7.6378477E-1,-9.1509126E-2,-2.2893066E0,4.017695E0,-9.742289E-2,-2.8926209E-2,-9.823585E-2,-8.574296E-4,1.9206705E-2,1.0978738E-1,-7.399484E-2,7.094555E-2],"split_indices":[0,3,2,1,3,0,5,3,0,2,3,0,0,0,0,0,0,0,0],"split_type":[0,0,0,0,0,0,0,0,0,0,0,0,0,0,0,0,0,0,0],"sum_hessian":[8.417126E1,7.6015144E1,8.156109E0,6.545997E1,1.0555181E1,1.0698633E0,7.086246E0,6.235798E1,3.101987E0,3.4071324E0,7.148048E0,5.805015E0,1.2812309E0,1.4845498E0,6.087343E1,1.0223838E0,2.3847485E0,2.2982588E0,4.849789E0],"tree_param":{"num_deleted":"0","num_feature":"8","num_nodes":"19","size_leaf_vector":"0"}},{"base_weights":[-9.0902075E-2,1.04920834E-1,-3.738879E-1,-1.5381882E-1,3.3969057E-1,2.8314057E-1,-4.845323E-1,-6.4887434E-1,2.273547E-1,4.4736642E-1,-5.6139237E-1,7.6733166E-1,-6.317943E-1,-5.452104E-1,6.239264E-1,-8.752659E-1,1.369336E-1,1.005007E0,-8.073799E-2,1.123207E0,2.803306E-1,-1.3148084E-1,-7.446637E-1,-5.5821378E-2,1.1453559E0,-3.6710054E-1,-9.277631E-1],"categories":[],"categories_nodes":[],"categories_segments":[],"categories_sizes":[],"default_left":[true,true,true,true,true,false,true,true,true,false,true,true,false,true,false,false,false,false,false,false,false,false,false,false,false,false,false],"id":24,"left_children":[1,3,5,7,9,11,13,15,17,19,21,23,-1,25,-1,-1,-1,-1,-1,-1,-1,-1,-1,-1,-1,-1,-1],"loss_changes":[4.7042227E0,3.1219363E0,2.6559896E0,4.813819E0,2.8520184E0,2.976686E0,2.3595037E0,2.0797281E0,3.605896E0,2.4510856E0,1.6247797E-1,1.3490541E0,0E0,1.6352787E0,0E0,0E0,0E0,0E0,0E0,0E0,0E0,0E0,0E0,0E0,0E0,0E0,0E0],"parents":[2147483647,0,0,1,1,2,2,3,3,4,4,5,5,6,6,7,7,8,8,9,9,10,10,11,11,13,13],"right_children":[2,4,6,8,10,12,14,16,18,20,22,24,-1,26,-1,-1,-1,-1,-1,-1,-1,-1,-1,-1,-1,-1,-1],"split_conditions":[2.0806341E1,6.103041E-2,-1.2474365E0,5.5096558E1,8.9774513E-1,6.298828E-1,2.8115234E0,3.2314637E0,7.147191E1,-2.1574707E0,7.65971E-1,-1.9680176E0,-6.3179426E-2,-3.873711E-2,6.239264E-2,-8.752659E-2,1.369336E-2,1.005007E-1,-8.073799E-3,1.123207E-1,2.8033061E-2,-1.3148084E-2,-7.446637E-2,-5.582138E-3,1.1453559E-1,-3.6710054E-2,-9.277631E-2],"split_indices":[1,6,4,7,6,2,2,3,0,2,5,4,0,6,0,0,0,0,0,0,0,0,0,0,0,0,0],"split_type":[0,0,0,0,0,0,0,0,0,0,0,0,0,0,0,0,0,0,0,0,0,0,0,0,0,0,0],"sum_hessian":[8.3182724E1,4.953459E1,3.364813E1,2.372837E1,2.5806221E1,4.6249924E0,2.9023136E1,1.0016704E1,1.3711668E1,2.350142E1,2.3048031E0,3.1299329E0,1.4950598E0,2.79986E1,1.0245348E0,7.687958E0,2.328746E0,3.2489676E0,1.04627E1,3.5229461E0,1.9978472E1,1.2021806E0,1.1026225E0,1.253265E0,1.8766677E0,2.0441158E1,7.557442E0],"tree_param":{"num_deleted":"0","num_feature":"8","num_nodes":"27","size_leaf_vector":"0"}},{"base_weights":[-8.270127E-2,-3.8235842E-3,-7.76269E-1,-6.0784638E-2,7.1834123E-1,-8.801816E-1,-1.7875819E-2,3.7003836E-1,-1.5157159E-1,9.7918874E-1,-5.5369083E-2,-9.435467E-1,-2.7281028E-1,-3.979137E-2,7.7588654E-1,-7.1477437E-1,-7.436384E-2],"categories":[],"categories_nodes":[],"categories_segments":[],"categories_sizes":[],"default_left":[true,true,true,false,true,true,false,true,false,false,false,false,false,false,false,false,false],"id":25,"left_children":[1,3,5,7,9,11,-1,13,15,-1,-1,-1,-1,-1,-1,-1,-1],"loss_changes":[4.532736E0,3.147228E0,6.5106773E-1,2.8274007E0,1.1831839E0,2.8192043E-2,0E0,2.130406E0,2.5224268E0,0E0,0E0,0E0,0E0,0E0,0E0,0E0,0E0],"parents":[2147483647,0,0,1,1,2,2,3,3,4,4,5,5,7,7,8,8],"right_children":[2,4,6,8,10,12,-1,14,16,-1,-1,-1,-1,-1,-1,-1,-1],"split_conditions":[1.2308887E2,2.7373047E0,6.049478E-1,-1.9833984E0,9.392047E1,3.50736E2,-1.7875818E-3,5.898533E-1,-1.4157715E0,9.7918876E-2,-5.5369083E-3,-9.4354674E-2,-2.728103E-2,-3.979137E-3,7.7588655E-2,-7.1477436E-2,-7.4363844E-3],"split_indices":[0,2,6,2,0,1,0,5,2,0,0,0,0,0,0,0,0],"split_type":[0,0,0,0,0,0,0,0,0,0,0,0,0,0,0,0,0],"sum_hessian":[8.1909E1,7.4447754E1,7.46124E0,6.9853836E1,4.59392E0,6.4208837E0,1.0403562E0,1.1622794E1,5.823104E1,3.237021E0,1.3568995E0,5.3130937E0,1.1077902E0,6.2318063E0,5.390988E0,6.024761E0,5.220628E1],"tree_param":{"num_deleted":"0","num_feature":"8","num_nodes":"17","size_leaf_vector":"0"}},{"base_weights":[-7.5762756E-2,-8.94935E-3,-8.2840794E-1,-6.696311E-2,7.482443E-1,-9.112144E-1,-2.048248E-1,-1.8154712E-2,-8.929499E-1,9.774758E-1,-8.149161E-2,-7.6648456E-1,2.5899509E-2],"categories":[],"categories_nodes":[],"categories_segments":[],"categories_sizes":[],"default_left":[true,true,true,true,true,false,false,true,false,false,false,false,false],"id":26,"left_children":[1,3,5,7,9,-1,-1,11,-1,-1,-1,-1,-1],"loss_changes":[4.1196995E0,3.4057753E0,1.5832853E-1,2.8813312E0,1.1292751E0,0E0,0E0,2.290727E0,0E0,0E0,0E0,0E0,0E0],"parents":[2147483647,0,0,1,1,2,2,3,3,4,4,7,7],"right_children":[2,4,6,8,10,-1,-1,12,-1,-1,-1,-1,-1],"split_conditions":[1.289841E2,4.0307026E0,8.97339E-1,1.9186443E2,8.684423E-1,-9.112144E-2,-2.048248E-2,1.703244E-1,-8.929499E-2,9.774759E-2,-8.149161E-3,-7.664846E-2,2.589951E-3],"split_indices":[0,3,5,1,5,0,0,5,0,0,0,0,0],"split_type":[0,0,0,0,0,0,0,0,0,0,0,0,0],"sum_hessian":[8.107152E1,7.5390854E1,5.680665E0,7.0872406E1,4.518453E0,4.6075644E0,1.0731006E0,6.78831E1,2.9893017E0,3.4008436E0,1.1176093E0,2.8623831E0,6.502072E1],"tree_param":{"num_deleted":"0","num_feature":"8","num_nodes":"13","size_leaf_vector":"0"}},{"base_weights":[-7.133346E-2,1.7050726E-3,-7.0800537E-1,-5.0689638E-2,6.786265E-1,-4.4047732E-2,-8.075686E-1,3.7055793E-1,-1.3786334E-1,9.3659604E-1,-5.8648977E-2,-9.1964513E-1,-6.805692E-2,-3.100225E-2,7.874022E-1,-6.905815E-2,-7.6387227E-1],"categories":[],"categories_nodes":[],"categories_segments":[],"categories_sizes":[],"default_left":[true,true,true,false,true,false,true,true,true,false,false,false,false,false,false,false,false],"id":27,"left_children":[1,3,5,7,9,-1,11,13,15,-1,-1,-1,-1,-1,-1,-1,-1],"loss_changes":[3.7811093E0,2.6560464E0,5.175843E-1,2.6046364E0,1.0781426E0,0E0,5.35728E-1,2.065558E0,2.460271E0,0E0,0E0,0E0,0E0,0E0,0E0,0E0,0E0],"parents":[2147483647,0,0,1,1,2,2,3,3,4,4,6,6,7,7,8,8],"right_children":[2,4,6,8,10,-1,12,14,16,-1,-1,-1,-1,-1,-1,-1,-1],"split_conditions":[1.211882E2,2.7373047E0,7.8529515E0,-1.9833984E0,9.392047E1,-4.4047735E-3,3.4179988E0,5.898533E-1,1.06163475E2,9.36596E-2,-5.8648977E-3,-9.196451E-2,-6.805692E-3,-3.100225E-3,7.8740224E-2,-6.905815E-3,-7.638723E-2],"split_indices":[0,2,1,2,0,0,3,5,7,0,0,0,0,0,0,0,0],"split_type":[0,0,0,0,0,0,0,0,0,0,0,0,0,0,0,0,0],"sum_hessian":[8.028545E1,7.291771E1,7.3677444E0,6.8537895E1,4.3798165E0,1.1488456E0,6.2188993E0,1.1194098E1,5.73438E1,3.0442858E0,1.3355305E0,5.1889105E0,1.0299885E0,6.1730337E0,5.0210648E0,5.2665592E1,4.678206E0],"tree_param":{"num_deleted":"0","num_feature":"8","num_nodes":"17","size_leaf_vector":"0"}},{"base_weights":[-6.5388225E-2,-1.2408789E-2,-8.6946225E-1,-8.7486364E-2,4.3259877E-1,6.739121E-2,-3.1598362E-1,-6.1877213E-2,6.269241E-1,-1.3986391E-1,5.305135E-1,-9.989187E-2,-1.0598733E0,-4.7830236E-1,3.8280258E-1,-3.0592414E-2,7.9877234E-1],"categories":[],"categories_nodes":[],"categories_segments":[],"categories_sizes":[],"default_left":[true,true,false,true,true,true,true,false,true,false,false,false,false,false,false,false,false],"id":28,"left_children":[1,3,-1,5,7,9,11,13,15,-1,-1,-1,-1,-1,-1,-1,-1],"loss_changes":[3.4130762E0,2.5910358E0,0E0,2.3647547E0,1.1149802E0,3.9416287E0,4.2226934E0,9.367406E-1,9.43069E-1,0E0,0E0,0E0,0E0,0E0,0E0,0E0,0E0],"parents":[2147483647,0,0,1,1,3,3,4,4,5,5,6,6,7,7,8,8],"right_children":[2,4,-1,6,8,10,12,14,16,-1,-1,-1,-1,-1,-1,-1,-1],"split_conditions":[1.3494376E2,3.5502965E0,-8.694623E-2,1.7224018E1,-2.3625391E1,4.0869224E-1,7.742183E-2,4.0185294E0,-8.874297E-1,-1.3986391E-2,5.3051353E-2,-9.989187E-3,-1.0598733E-1,-4.7830235E-2,3.828026E-2,-3.0592415E-3,7.9877235E-2],"split_indices":[0,3,0,1,1,6,6,3,4,0,0,0,0,0,0,0,0],"split_type":[0,0,0,0,0,0,0,0,0,0,0,0,0,0,0,0,0],"sum_hessian":[7.937358E1,7.54197E1,3.9538774E0,6.521982E1,1.01998825E1,3.929224E1,2.592758E1,3.069889E0,7.129993E0,2.7626783E1,1.1665458E1,2.0970238E1,4.9573402E0,1.5462635E0,1.5236257E0,1.6476855E0,5.4823074E0],"tree_param":{"num_deleted":"0","num_feature":"8","num_nodes":"17","size_leaf_vector":"0"}},{"base_weights":[-6.09441E-2,5.3184394E-2,-4.1893512E-1,-5.3828365E-1,1.3918231E-1,-5.3534424E-1,4.621852E-1,1.883586E-1,-8.7196165E-1,-2.6015335E-1,2.6670444E-1,-7.164626E-1,7.5670496E-2,-7.195435E-1,9.9311835E-1,-1.1567326E0,-2.0023435E-1,6.907902E-1,-5.2633363E-1,4.9221563E-1,-1.9007245E-1,1.391376E-1,-8.43458E-1,8.2224077E-1,-4.361279E-1],"categories":[],"categories_nodes":[],"categories_segments":[],"categories_sizes":[],"default_left":[true,true,true,true,true,true,false,true,true,false,true,true,true,false,false,false,false,false,false,false,false,false,false,false,false],"id":29,"left_children":[1,3,5,7,9,11,-1,13,15,17,19,21,23,-1,-1,-1,-1,-1,-1,-1,-1,-1,-1,-1,-1],"loss_changes":[3.2687378E0,3.1847184E0,2.2291708E0,2.0958042E0,2.8280404E0,1.9941278E0,0E0,3.14715E0,8.466811E-1,3.8106408E0,4.3739386E0,1.5969357E0,2.235643E0,0E0,0E0,0E0,0E0,0E0,0E0,0E0,0E0,0E0,0E0,0E0,0E0],"parents":[2147483647,0,0,1,1,2,2,3,3,4,4,5,5,7,7,8,8,9,9,10,10,11,11,12,12],"right_children":[2,4,6,8,10,12,-1,14,16,18,20,22,24,-1,-1,-1,-1,-1,-1,-1,-1,-1,-1,-1,-1],"split_conditions":[1.0348102E2,7.6378477E-1,3.568828E0,6.251426E-1,-2.3558447E1,9.077797E-1,4.6218522E-2,4.7463664E-1,6.4059715E1,2.1700056E0,2.90354E1,-1.3856896E1,3.4443635E-1,-7.1954355E-2,9.9311836E-2,-1.1567326E-1,-2.0023435E-2,6.907902E-2,-5.2633364E-2,4.9221564E-2,-1.9007245E-2,1.391376E-2,-8.43458E-2,8.222408E-2,-4.361279E-2],"split_indices":[0,3,3,5,1,4,0,5,7,3,1,1,5,0,0,0,0,0,0,0,0,0,0,0,0],"split_type":[0,0,0,0,0,0,0,0,0,0,0,0,0,0,0,0,0,0,0,0,0,0,0,0,0],"sum_hessian":[7.845906E1,6.013826E1,1.8320799E1,6.966372E0,5.3171886E1,1.6529442E1,1.791357E0,2.3293383E0,4.6370335E0,1.2618133E1,4.0553753E1,1.2616926E1,3.9125164E0,1.1442853E0,1.185053E0,2.7494214E0,1.887612E0,2.4106736E0,1.02074585E1,2.7097908E1,1.3455847E1,1.6183156E0,1.09986105E1,1.3445799E0,2.5679364E0],"tree_param":{"num_deleted":"0","num_feature":"8","num_nodes":"25","size_leaf_vector":"0"}},{"base_weights":[-5.6530587E-2,-9.215193E-3,-8.374295E-1,-5.6774165E-2,6.3603085E-1,-1.1402964E-2,-8.596358E-1,8.579518E-1,-1.10124566E-1,-7.4459106E-1,3.189859E-2],"categories":[],"categories_nodes":[],"categories_segments":[],"categories_sizes":[],"default_left":[true,true,false,true,true,true,false,false,false,false,false],"id":30,"left_children":[1,3,-1,5,7,9,-1,-1,-1,-1,-1],"loss_changes":[2.891988E0,2.3378735E0,0E0,2.5683486E0,9.606643E-1,2.1827521E0,0E0,0E0,0E0,0E0,0E0],"parents":[2147483647,0,0,1,1,3,3,4,4,5,5],"right_children":[2,4,-1,6,8,10,-1,-1,-1,-1,-1],"split_conditions":[1.3494376E2,4.0307026E0,-8.3742954E-2,1.9186443E2,8.684423E-1,1.703244E-1,-8.596358E-2,8.579519E-2,-1.1012456E-2,-7.4459106E-2,3.1898592E-3],"split_indices":[0,3,0,1,5,5,0,0,0,0,0],"split_type":[0,0,0,0,0,0,0,0,0,0,0],"sum_hessian":[7.747955E1,7.4007195E1,3.4723642E0,6.977622E1,4.2309656E0,6.7003914E1,2.7723124E0,3.1455796E0,1.0853859E0,2.833372E0,6.417054E1],"tree_param":{"num_deleted":"0","num_feature":"8","num_nodes":"11","size_leaf_vector":"0"}},{"base_weights":[-5.359975E-2,2.2934685E-3,-6.715541E-1,4.1827638E-2,-7.434839E-1,-7.6890755E-1,-1.0518898E-1,-7.534548E-3,6.930602E-1,-4.1516595E-2,9.7900194E-1,9.928989E-1,-8.920848E-2],"categories":[],"categories_nodes":[],"categories_segments":[],"categories_sizes":[],"default_left":[true,true,true,true,false,false,false,true,true,false,false,false,false],"id":31,"left_children":[1,3,5,7,-1,-1,-1,9,11,-1,-1,-1,-1],"loss_changes":[2.6906924E0,2.1655996E0,2.7538514E-1,2.245758E0,0E0,0E0,0E0,2.2457767E0,1.2429385E0,0E0,0E0,0E0,0E0],"parents":[2147483647,0,0,1,1,2,2,3,3,7,7,8,8],"right_children":[2,4,6,8,-1,-1,-1,10,12,-1,-1,-1,-1],"split_conditions":[1.2308887E2,1.9186443E2,5.831421E-1,2.7373047E0,-7.434839E-2,-7.689076E-2,-1.0518898E-2,1.4872217E2,9.392047E1,-4.1516596E-3,9.79002E-2,9.928989E-2,-8.920848E-3],"split_indices":[0,1,6,2,0,0,0,1,0,0,0,0,0],"split_type":[0,0,0,0,0,0,0,0,0,0,0,0,0],"sum_hessian":[7.68574E1,7.1396E1,5.4613934E0,6.869818E1,2.6978238E0,4.3551593E0,1.1062341E0,6.4776665E1,3.9215171E0,6.35457E1,1.2309662E0,2.640265E0,1.2812523E0],"tree_param":{"num_deleted":"0","num_feature":"8","num_nodes":"13","size_leaf_vector":"0"}},{"base_weights":[-4.8410863E-2,-6.589306E-3,-8.057915E-1,-5.008605E-2,6.0302424E-1,-7.583265E-1,-5.234375E-3,8.262287E-1,-1.0935827E-1,-8.7149906E-1,-2.1160926E-1,-1.8510945E-1,1.5842864E-1],"categories":[],"categories_nodes":[],"categories_segments":[],"categories_sizes":[],"default_left":[true,true,false,true,true,false,true,false,false,false,false,false,false],"id":32,"left_children":[1,3,-1,5,7,9,11,-1,-1,-1,-1,-1,-1],"loss_changes":[2.4449878E0,2.0008354E0,0E0,2.2289042E0,8.8955927E-1,7.417631E-2,2.0050423E0,0E0,0E0,0E0,0E0,0E0,0E0],"parents":[2147483647,0,0,1,1,3,3,4,4,5,5,6,6],"right_children":[2,4,-1,6,8,10,12,-1,-1,-1,-1,-1,-1],"split_conditions":[1.3494376E2,4.0307026E0,-8.0579154E-2,1.703244E-1,8.684423E-1,2.9573507E0,5.6571342E1,8.262287E-2,-1.0935827E-2,-8.714991E-2,-2.1160927E-2,-1.8510945E-2,1.5842864E-2],"split_indices":[0,3,0,5,5,3,7,0,0,0,0,0,0],"split_type":[0,0,0,0,0,0,0,0,0,0,0,0,0],"sum_hessian":[7.6357864E1,7.331804E1,3.039825E0,6.929182E1,4.026224E0,3.1793973E0,6.611242E1,2.9439974E0,1.0822265E0,2.1419475E0,1.0374497E0,3.143381E1,3.4678608E1],"tree_param":{"num_deleted":"0","num_feature":"8","num_nodes":"13","size_leaf_vector":"0"}},{"base_weights":[-4.546857E-2,4.9514867E-2,-3.6132443E-1,-5.024319E-1,1.2954292E-1,-4.7036743E-1,4.356502E-1,1.8857302E-1,-8.2561386E-1,-2.3791744E-1,2.4762705E-1,-6.5469587E-1,1.1954656E-1,-6.886121E-1,9.136566E-1,-1.0982575E0,-1.9274072E-1,6.448803E-1,-4.8957974E-1,4.509987E-1,-1.702817E-1,-7.9632676E-1,1.0711932E-1,8.134176E-1,-3.9094207E-1],"categories":[],"categories_nodes":[],"categories_segments":[],"categories_sizes":[],"default_left":[true,true,true,true,true,true,false,true,true,false,true,false,true,false,false,false,false,false,false,false,false,false,false,false,false],"id":33,"left_children":[1,3,5,7,9,11,-1,13,15,17,19,21,23,-1,-1,-1,-1,-1,-1,-1,-1,-1,-1,-1,-1],"loss_changes":[2.3266952E0,2.7173388E0,1.7615995E0,1.8994975E0,2.3689013E0,1.8439054E0,0E0,2.7295558E0,7.384112E-1,3.305425E0,3.5426555E0,1.4368358E0,1.986828E0,0E0,0E0,0E0,0E0,0E0,0E0,0E0,0E0,0E0,0E0,0E0,0E0],"parents":[2147483647,0,0,1,1,2,2,3,3,4,4,5,5,7,7,8,8,9,9,10,10,11,11,12,12],"right_children":[2,4,6,8,10,12,-1,14,16,18,20,22,24,-1,-1,-1,-1,-1,-1,-1,-1,-1,-1,-1,-1],"split_conditions":[1.0348102E2,7.6378477E-1,3.568828E0,6.251426E-1,-2.3558447E1,9.077797E-1,4.356502E-2,4.7463664E-1,6.4059715E1,2.1700056E0,2.90354E1,3.2963867E0,3.4443635E-1,-6.886121E-2,9.136566E-2,-1.0982575E-1,-1.9274073E-2,6.448803E-2,-4.8957974E-2,4.509987E-2,-1.702817E-2,-7.963268E-2,1.0711933E-2,8.1341766E-2,-3.9094206E-2],"split_indices":[0,3,3,5,1,4,0,5,7,3,1,2,5,0,0,0,0,0,0,0,0,0,0,0,0],"split_type":[0,0,0,0,0,0,0,0,0,0,0,0,0,0,0,0,0,0,0,0,0,0,0,0,0],"sum_hessian":[7.5957375E1,5.90448E1,1.6912579E1,6.8085556E0,5.2236244E1,1.5237565E1,1.6750126E0,2.302348E0,4.506208E0,1.2457022E1,3.977922E1,1.1526198E1,3.7113674E0,1.0646567E0,1.2376912E0,2.635482E0,1.8707259E0,2.416784E0,1.0040237E1,2.670452E1,1.3074701E1,9.681066E0,1.8451321E0,1.3216002E0,2.3897672E0],"tree_param":{"num_deleted":"0","num_feature":"8","num_nodes":"25","size_leaf_vector":"0"}},{"base_weights":[-4.2312633E-2,5.6993663E-3,-6.238532E-1,4.256841E-2,-7.1498936E-1,-7.299897E-1,-7.210068E-2,-2.133938E-3,6.5327454E-1,-3.3845257E-2,8.775846E-1,9.456311E-1,-8.6322814E-2],"categories":[],"categories_nodes":[],"categories_segments":[],"categories_sizes":[],"default_left":[true,true,true,true,false,false,false,true,true,false,false,false,false],"id":34,"left_children":[1,3,5,7,-1,-1,-1,9,11,-1,-1,-1,-1],"loss_changes":[2.128227E0,1.92452E0,2.8774858E-1,1.8784918E0,0E0,0E0,0E0,1.8448291E0,1.0963633E0,0E0,0E0,0E0,0E0],"parents":[2147483647,0,0,1,1,2,2,3,3,7,7,8,8],"right_children":[2,4,6,8,-1,-1,-1,10,12,-1,-1,-1,-1],"split_conditions":[1.2308887E2,1.9186443E2,5.831421E-1,2.7373047E0,-7.149894E-2,-7.299897E-2,-7.210068E-3,1.4872217E2,9.392047E1,-3.3845257E-3,8.775846E-2,9.456311E-2,-8.632282E-3],"split_indices":[0,1,6,2,0,0,0,1,0,0,0,0,0],"split_type":[0,0,0,0,0,0,0,0,0,0,0,0,0],"sum_hessian":[7.509602E1,7.028361E1,4.812416E0,6.775816E1,2.525443E0,3.7651117E0,1.0473043E0,6.406523E1,3.6929288E0,6.2764286E1,1.3009448E0,2.4470534E0,1.2458752E0],"tree_param":{"num_deleted":"0","num_feature":"8","num_nodes":"13","size_leaf_vector":"0"}},{"base_weights":[-3.8168818E-2,1.810875E-2,-5.155569E-1,-1.3008681E-1,2.003426E-1,-8.579805E-1,3.552626E-1,7.8451015E-2,-4.6607324E-1,3.0712825E-1,-8.1334627E-1,-1.3854825E-1,-9.738019E-1,-5.1121455E-1,2.012339E-1,-7.56915E-1,2.8975704E-1,1.5621087E-1,8.320157E-1],"categories":[],"categories_nodes":[],"categories_segments":[],"categories_sizes":[],"default_left":[true,true,true,true,true,true,false,true,true,true,false,false,false,false,false,false,false,false,false],"id":35,"left_children":[1,3,5,7,9,11,-1,13,15,17,-1,-1,-1,-1,-1,-1,-1,-1,-1],"loss_changes":[2.042119E0,1.8800445E0,2.6941874E0,2.7318077E0,3.6252651E0,3.6872005E-1,0E0,1.8833042E0,3.4894645E0,2.1622555E0,0E0,0E0,0E0,0E0,0E0,0E0,0E0,0E0,0E0],"parents":[2147483647,0,0,1,1,2,2,3,3,4,4,5,5,7,7,8,8,9,9],"right_children":[2,4,6,8,10,12,-1,14,16,18,-1,-1,-1,-1,-1,-1,-1,-1,-1],"split_conditions":[1.06163475E2,5.880543E1,1.3833267E2,8.182616E1,1.287298E2,-4.8381042E-1,3.552626E-2,-3.5172462E-1,6.5332806E-1,8.967352E-1,-8.133463E-2,-1.3854826E-2,-9.738019E-2,-5.1121455E-2,2.012339E-2,-7.56915E-2,2.8975705E-2,1.56210875E-2,8.320157E-2],"split_indices":[7,7,7,0,1,4,0,6,6,5,0,0,0,0,0,0,0,0,0],"split_type":[0,0,0,0,0,0,0,0,0,0,0,0,0,0,0,0,0,0,0],"sum_hessian":[7.46631E1,6.765014E1,7.0129647E0,3.746728E1,3.0182854E1,5.0442204E0,1.9687444E0,2.35913E1,1.3875984E1,2.79369E1,2.2459548E0,1.0040047E0,4.040216E0,3.5205011E0,2.0070797E1,1.0019189E1,3.8567955E0,2.2706003E1,5.230897E0],"tree_param":{"num_deleted":"0","num_feature":"8","num_nodes":"19","size_leaf_vector":"0"}},{"base_weights":[-3.6717843E-2,-9.119212E-4,-7.6227033E-1,-8.4812933E-1,2.7335068E-2,-3.7325665E-2,4.3954977E-1,1.2558366E-1,-2.1136911E-1,7.2676075E-1,-4.4195452E-1],"categories":[],"categories_nodes":[],"categories_segments":[],"categories_sizes":[],"default_left":[true,false,false,false,true,true,true,false,false,false,false],"id":36,"left_children":[1,3,-1,-1,5,7,9,-1,-1,-1,-1],"loss_changes":[1.9523507E0,1.7616357E0,0E0,0E0,1.9159979E0,1.7993783E0,2.787579E0,0E0,0E0,0E0,0E0],"parents":[2147483647,0,0,1,1,4,4,5,5,6,6],"right_children":[2,4,-1,-1,6,8,10,-1,-1,-1,-1],"split_conditions":[1.3494376E2,7.6378477E-1,-7.622703E-2,-8.481293E-2,6.143292E-1,8.183037E1,8.9774513E-1,1.2558366E-2,-2.1136912E-2,7.267608E-2,-4.4195455E-2],"split_indices":[0,3,0,0,6,0,6,0,0,0,0],"split_type":[0,0,0,0,0,0,0,0,0,0,0],"sum_hessian":[7.417765E1,7.164332E1,2.5343313E0,1.3750709E0,7.026824E1,6.1526535E1,8.741711E0,3.1923613E1,2.9602922E1,6.725847E0,2.0158644E0],"tree_param":{"num_deleted":"0","num_feature":"8","num_nodes":"11","size_leaf_vector":"0"}},{"base_weights":[-3.522679E-2,-1.7379667E-3,-7.4455833E-1,3.4131274E-1,-6.975872E-2,-1.6874095E-2,6.7786014E-1,-5.9884644E-1,2.3580547E-2,4.9542013E-1,-4.2899457E-1,9.065532E-1,-1.7896242E-1,-7.186985E-1,-3.8051147E-3,4.558396E-1,-6.802205E-2],"categories":[],"categories_nodes":[],"categories_segments":[],"categories_sizes":[],"default_left":[true,false,false,true,false,true,true,false,false,false,false,false,false,false,false,false,false],"id":37,"left_children":[1,3,-1,5,7,9,11,13,15,-1,-1,-1,-1,-1,-1,-1,-1],"loss_changes":[1.7743313E0,1.7127862E0,0E0,1.4756844E0,3.0381503E0,1.6608399E0,1.3941352E0,6.5484834E-1,2.1301367E0,0E0,0E0,0E0,0E0,0E0,0E0,0E0,0E0],"parents":[2147483647,0,0,1,1,3,3,4,4,5,5,6,6,7,7,8,8],"right_children":[2,4,-1,6,8,10,12,14,16,-1,-1,-1,-1,-1,-1,-1,-1],"split_conditions":[1.3494376E2,-1.9833984E0,-7.4455835E-2,5.898533E-1,-1.2828369E0,9.433903E0,9.389758E-1,3.358675E0,-6.6186523E-1,4.9542014E-2,-4.2899456E-2,9.065532E-2,-1.7896242E-2,-7.186985E-2,-3.8051148E-4,4.558396E-2,-6.802205E-3],"split_indices":[0,2,0,5,2,1,5,3,2,0,0,0,0,0,0,0,0],"split_type":[0,0,0,0,0,0,0,0,0,0,0,0,0,0,0,0,0],"sum_hessian":[7.374845E1,7.1380875E1,2.36757E0,1.1146697E1,6.023418E1,5.8598886E0,5.286809E0,8.220574E0,5.2013607E1,2.5223317E0,3.337557E0,4.1271873E0,1.1596214E0,6.66942E0,1.5511547E0,8.399821E0,4.3613785E1],"tree_param":{"num_deleted":"0","num_feature":"8","num_nodes":"17","size_leaf_vector":"0"}},{"base_weights":[-3.234412E-2,-7.198635E-2,5.601631E-1,2.7374792E-1,-1.4582147E-1,8.2067E-1,-8.856758E-2,6.5566427E-1,-6.866908E-2,-7.347462E-2,-7.45742E-1,3.88E-2,9.062992E-1,7.3439837E-1,-3.923145E-1,-4.438823E-1,8.214749E-2,3.2475367E-1,-1.0215799E0],"categories":[],"categories_nodes":[],"categories_segments":[],"categories_sizes":[],"default_left":[true,false,true,true,true,false,false,true,false,true,true,false,false,false,false,false,false,false,false],"id":38,"left_children":[1,3,5,7,9,-1,-1,11,13,15,17,-1,-1,-1,-1,-1,-1,-1,-1],"loss_changes":[1.7860105E0,1.8407927E0,8.795855E-1,1.7140062E0,2.4965987E0,0E0,0E0,9.1226625E-1,2.2723422E0,3.1243033E0,2.1675034E0,0E0,0E0,0E0,0E0,0E0,0E0,0E0,0E0],"parents":[2147483647,0,0,1,1,2,2,3,3,4,4,7,7,8,8,9,9,10,10],"right_children":[2,4,6,8,10,-1,-1,12,14,16,18,-1,-1,-1,-1,-1,-1,-1,-1],"split_conditions":[2.7373047E0,-1.918335E0,9.392047E1,-7.144165E-2,1.06163475E2,8.2067005E-2,-8.856758E-3,4.5276184E1,-3.3200684E0,-1.1867676E0,-7.244966E-1,3.8800002E-3,9.062992E-2,7.343984E-2,-3.923145E-2,-4.438823E-2,8.214748E-3,3.2475367E-2,-1.0215799E-1],"split_indices":[2,2,0,4,7,0,0,7,2,2,6,0,0,0,0,0,0,0,0],"split_type":[0,0,0,0,0,0,0,0,0,0,0,0,0,0,0,0,0,0,0],"sum_hessian":[7.332151E1,6.954691E1,3.7745936E0,1.1762278E1,5.7784637E1,2.504027E0,1.2705667E0,5.1279655E0,6.6343117E0,5.2567757E1,5.2168837E0,1.8151971E0,3.3127685E0,1.5411305E0,5.093181E0,1.5003799E1,3.7563957E1,1.0325065E0,4.184377E0],"tree_param":{"num_deleted":"0","num_feature":"8","num_nodes":"19","size_leaf_vector":"0"}},{"base_weights":[-2.820543E-2,1.2010157E-2,-5.7236034E-1,-8.041545E-1,3.9263647E-2,-6.716942E-1,-8.682246E-2,7.1937636E-2,-6.549877E-1,4.311853E-2,8.409013E-1],"categories":[],"categories_nodes":[],"categories_segments":[],"categories_sizes":[],"default_left":[true,false,true,false,true,false,false,true,false,false,false],"id":39,"left_children":[1,3,5,-1,7,-1,-1,9,-1,-1,-1],"loss_changes":[1.618266E0,1.5785308E0,1.8707848E-1,0E0,1.5953696E0,0E0,0E0,1.4282705E0,0E0,0E0,0E0],"parents":[2147483647,0,0,1,1,2,2,4,4,7,7],"right_children":[2,4,6,-1,8,-1,-1,10,-1,-1,-1],"split_conditions":[1.2308887E2,7.6378477E-1,4.071568E-1,-8.041545E-2,1.9186443E2,-6.716942E-2,-8.682246E-3,1.4872217E2,-6.549877E-2,4.311853E-3,8.4090136E-2],"split_indices":[0,3,6,0,1,0,0,1,0,0,0],"split_type":[0,0,0,0,0,0,0,0,0,0,0],"sum_hessian":[7.263499E1,6.8546974E1,4.088012E0,1.2938343E0,6.725314E1,3.075424E0,1.0125884E0,6.508633E1,2.1668177E0,6.3753067E1,1.3332545E0],"tree_param":{"num_deleted":"0","num_feature":"8","num_nodes":"11","size_leaf_vector":"0"}},{"base_weights":[-2.7454503E-2,-6.313475E-2,5.597259E-1,2.6182532E-1,-1.3183597E-1,8.564779E-1,-8.457478E-2,6.19644E-1,-5.8738526E-2,-6.5564744E-2,-7.1110296E-1,3.3557825E-2,8.6376965E-1,7.00449E-1,-3.6237255E-1,-4.0956348E-1,7.567234E-2,3.083976E-1,-9.9222493E-1],"categories":[],"categories_nodes":[],"categories_segments":[],"categories_sizes":[],"default_left":[true,false,true,true,true,false,false,true,false,true,true,false,false,false,false,false,false,false,false],"id":40,"left_children":[1,3,5,7,9,-1,-1,11,13,15,17,-1,-1,-1,-1,-1,-1,-1,-1],"loss_changes":[1.5731635E0,1.5994174E0,8.9576256E-1,1.4779841E0,2.2001877E0,0E0,0E0,8.3312654E-1,1.9924769E0,2.6361866E0,1.99895E0,0E0,0E0,0E0,0E0,0E0,0E0,0E0,0E0],"parents":[2147483647,0,0,1,1,2,2,3,3,4,4,7,7,8,8,9,9,10,10],"right_children":[2,4,6,8,10,-1,-1,12,14,16,18,-1,-1,-1,-1,-1,-1,-1,-1],"split_conditions":[2.8083496E0,-1.918335E0,9.392047E1,-7.144165E-2,1.06163475E2,8.564779E-2,-8.457478E-3,4.5276184E1,-3.3200684E0,-1.1867676E0,-7.244966E-1,3.3557825E-3,8.6376965E-2,7.00449E-2,-3.6237255E-2,-4.095635E-2,7.5672343E-3,3.083976E-2,-9.9222496E-2],"split_indices":[2,2,0,4,7,0,0,7,2,2,6,0,0,0,0,0,0,0,0],"split_type":[0,0,0,0,0,0,0,0,0,0,0,0,0,0,0,0,0,0,0],"sum_hessian":[7.2401955E1,6.9095795E1,3.306155E0,1.1567917E1,5.752788E1,2.0381224E0,1.2680327E0,5.025448E0,6.5424695E0,5.262095E1,4.906931E0,1.8122171E0,3.2132306E0,1.4957367E0,5.0467324E0,1.4763344E1,3.7857605E1,1.0396334E0,3.8672974E0],"tree_param":{"num_deleted":"0","num_feature":"8","num_nodes":"19","size_leaf_vector":"0"}},{"base_weights":[-2.367192E-2,8.5326396E-2,-2.0740528E-1,5.0246537E-1,-3.834764E-2,-4.1247793E-2,-8.19034E-1,-1.0748782E-2,9.1691905E-1,-6.1371374E-1,1.6877621E-1,1.8429762E-1,-4.1996488E-1,-9.7446865E-1,-6.2844485E-2,7.515294E-1,-4.5073187E-1,1.0715351E0,1.5651213E-1,-7.860789E-1,4.6037138E-1,-6.9566555E-2,5.7727325E-1,-4.8060444E-1,4.0963492E-1,5.1089823E-1,-7.0888054E-1],"categories":[],"categories_nodes":[],"categories_segments":[],"categories_sizes":[],"default_left":[true,false,true,false,false,true,true,true,true,true,true,false,true,false,false,false,false,false,false,false,false,false,false,false,false,false,false],"id":41,"left_children":[1,3,5,7,9,11,13,15,17,19,21,23,25,-1,-1,-1,-1,-1,-1,-1,-1,-1,-1,-1,-1,-1,-1],"loss_changes":[1.4746091E0,2.4114287E0,2.7486947E0,2.280408E0,4.4765534E0,2.0064254E0,6.2001014E-1,2.2697623E0,5.279803E-1,2.2000358E0,2.7435133E0,2.4216552E0,2.7112083E0,0E0,0E0,0E0,0E0,0E0,0E0,0E0,0E0,0E0,0E0,0E0,0E0,0E0,0E0],"parents":[2147483647,0,0,1,1,2,2,3,3,4,4,5,5,6,6,7,7,8,8,9,9,10,10,11,11,12,12],"right_children":[2,4,6,8,10,12,14,16,18,20,22,24,26,-1,-1,-1,-1,-1,-1,-1,-1,-1,-1,-1,-1,-1,-1],"split_conditions":[2.0806341E1,2.171412E0,3.7839502E-2,1.7039635E0,2.651675E0,4.678955E-1,3.458367E0,4.2156357E1,4.255012E0,1.2040134E1,5.8986618E1,2.2771125E0,2.7630645E-1,-9.744687E-2,-6.284449E-3,7.515294E-2,-4.507319E-2,1.0715351E-1,1.5651213E-2,-7.860789E-2,4.6037138E-2,-6.9566555E-3,5.7727326E-2,-4.8060443E-2,4.0963493E-2,5.1089823E-2,-7.088806E-2],"split_indices":[1,3,6,3,3,4,3,7,1,1,7,3,5,0,0,0,0,0,0,0,0,0,0,0,0,0,0],"split_type":[0,0,0,0,0,0,0,0,0,0,0,0,0,0,0,0,0,0,0,0,0,0,0,0,0,0,0],"sum_hessian":[7.174875E1,4.536935E1,2.6379398E1,9.674729E0,3.5694622E1,2.1583405E1,4.7959943E0,4.7575564E0,4.9171724E0,8.928699E0,2.676592E1,1.3848987E1,7.7344174E0,3.738823E0,1.0571712E0,1.4819558E0,3.2756007E0,3.7462707E0,1.170902E0,7.9250565E0,1.0036421E0,1.7427391E1,9.338531E0,3.2187142E0,1.0630273E1,1.6499811E0,6.0844364E0],"tree_param":{"num_deleted":"0","num_feature":"8","num_nodes":"27","size_leaf_vector":"0"}},{"base_weights":[-2.1308063E-2,-6.0050637E-1,1.40269445E-2,-8.782192E-1,1.1645379E-1,5.3435624E-2,-5.41786E-1,-9.878432E-2,1.9870989E-1,-1.7115186E-1,-7.025484E-1,-7.054616E-1,5.0404042E-2,-8.63463E-2,5.2567047E-1],"categories":[],"categories_nodes":[],"categories_segments":[],"categories_sizes":[],"default_left":[true,false,true,false,false,true,false,true,true,false,false,false,false,false,false],"id":42,"left_children":[1,3,5,-1,-1,7,9,11,13,-1,-1,-1,-1,-1,-1],"loss_changes":[1.4835787E0,9.320104E-1,1.538371E0,0E0,0E0,1.4627413E0,1.5695882E-1,2.9803278E0,3.1884747E0,0E0,0E0,0E0,0E0,0E0,0E0],"parents":[2147483647,0,0,1,1,2,2,5,5,6,6,7,7,8,8],"right_children":[2,4,6,-1,-1,8,10,12,14,-1,-1,-1,-1,-1,-1],"split_conditions":[1.703244E-1,3.025307E0,1.2308887E2,-8.782192E-2,1.16453795E-2,5.6571342E1,-2.6220703E-1,-3.4369296E-1,2.650948E0,-1.7115187E-2,-7.025484E-2,-7.0546165E-2,5.0404044E-3,-8.63463E-3,5.2567046E-2],"split_indices":[5,3,0,0,0,7,2,6,3,0,0,0,0,0,0],"split_type":[0,0,0,0,0,0,0,0,0,0,0,0,0,0,0],"sum_hessian":[7.107843E1,3.1672578E0,6.791117E1,2.1208365E0,1.0464213E0,6.42589E1,3.652274E0,3.1535587E1,3.2723312E1,1.7295231E0,1.9227507E0,5.4883685E0,2.6047218E1,1.7875078E1,1.4848235E1],"tree_param":{"num_deleted":"0","num_feature":"8","num_nodes":"15","size_leaf_vector":"0"}},{"base_weights":[-2.2066196E-2,5.93851E-3,-6.8807924E-1,-5.6938255E-1,4.0439934E-2,-8.4791064E-1,1.2132727E-1,-2.1486476E-2,4.2651033E-1,-2.1350212E-1,1.464128E-1,7.6246667E-1,-3.4835184E-1],"categories":[],"categories_nodes":[],"categories_segments":[],"categories_sizes":[],"default_left":[true,true,false,false,true,false,false,true,true,false,false,false,false],"id":43,"left_children":[1,3,-1,5,7,-1,-1,9,11,-1,-1,-1,-1],"loss_changes":[1.3394244E0,1.4064624E0,0E0,8.7422764E-1,1.603518E0,0E0,0E0,1.914713E0,2.6777565E0,0E0,0E0,0E0,0E0],"parents":[2147483647,0,0,1,1,3,3,4,4,7,7,8,8],"right_children":[2,4,-1,6,8,-1,-1,10,12,-1,-1,-1,-1],"split_conditions":[1.3494376E2,1.703244E-1,-6.880792E-2,3.025307E0,6.143292E-1,-8.4791064E-2,1.2132728E-2,5.880543E1,8.570914E-1,-2.1350212E-2,1.464128E-2,7.624667E-2,-3.4835186E-2],"split_indices":[0,5,0,3,6,0,0,7,6,0,0,0,0],"split_type":[0,0,0,0,0,0,0,0,0,0,0,0,0],"sum_hessian":[7.059415E1,6.8696655E1,1.897493E0,3.0094845E0,6.568717E1,1.9824644E0,1.02702E0,5.742107E1,8.266101E0,2.6660059E1,3.076101E1,5.7772574E0,2.4888434E0],"tree_param":{"num_deleted":"0","num_feature":"8","num_nodes":"13","size_leaf_vector":"0"}},{"base_weights":[-2.1521265E-2,-5.571585E-2,4.944731E-1,-1.6734364E-2,-7.7876836E-1,7.260274E-1,-1.6001163E-1,-6.52195E-1,1.7177522E-2,1.6993083E-1,-1.4626822E-1],"categories":[],"categories_nodes":[],"categories_segments":[],"categories_sizes":[],"default_left":[true,true,true,true,false,false,false,false,true,false,false],"id":44,"left_children":[1,3,5,7,-1,-1,-1,-1,9,-1,-1],"loss_changes":[1.2859981E0,1.8976595E0,8.033055E-1,1.4193383E0,0E0,0E0,0E0,0E0,1.5979582E0,0E0,0E0],"parents":[2147483647,0,0,1,1,2,2,3,3,8,8],"right_children":[2,4,6,8,-1,-1,-1,-1,10,-1,-1],"split_conditions":[4.0307026E0,1.889161E2,8.684423E-1,1.703244E-1,-7.7876836E-2,7.260274E-2,-1.6001163E-2,-6.52195E-2,8.178827E1,1.6993083E-2,-1.4626822E-2],"split_indices":[3,1,5,5,0,0,0,0,0,0,0],"split_type":[0,0,0,0,0,0,0,0,0,0,0],"sum_hessian":[7.0323555E1,6.678949E1,3.5340703E0,6.434371E1,2.4457788E0,2.5297446E0,1.0043257E0,2.3361182E0,6.200759E1,3.2031696E1,2.9975895E1],"tree_param":{"num_deleted":"0","num_feature":"8","num_nodes":"11","size_leaf_vector":"0"}},{"base_weights":[-2.0740781E-2,-5.2893046E-2,5.2047336E-1,5.170535E-1,-8.921068E-2,8.150165E-1,-1.0446654E-1,-1.4024644E-1,8.864606E-1,5.9611585E-2,-3.163743E-1,-2.2167741E-1,3.083238E-1,-1.4192545E-1,-9.673384E-1],"categories":[],"categories_nodes":[],"categories_segments":[],"categories_sizes":[],"default_left":[true,true,true,true,true,false,false,false,false,true,true,false,false,false,false],"id":45,"left_children":[1,3,5,7,9,-1,-1,-1,-1,11,13,-1,-1,-1,-1],"loss_changes":[1.2616733E0,1.4506307E0,8.341907E-1,1.1470034E0,2.204195E0,0E0,0E0,0E0,0E0,2.859517E0,2.7862957E0,0E0,0E0,0E0,0E0],"parents":[2147483647,0,0,1,1,2,2,3,3,4,4,9,9,10,10],"right_children":[2,4,6,8,10,-1,-1,-1,-1,12,14,-1,-1,-1,-1],"split_conditions":[2.8083496E0,-1.5220833E0,9.392047E1,-2.0238495E0,1.7224018E1,8.1501655E-2,-1.0446655E-2,-1.4024644E-2,8.864606E-2,6.103041E-2,1.6230778E-1,-2.216774E-2,3.083238E-2,-1.4192546E-2,-9.673384E-2],"split_indices":[2,4,0,4,1,0,0,0,0,6,6,0,0,0,0],"split_type":[0,0,0,0,0,0,0,0,0,0,0,0,0,0,0],"sum_hessian":[6.992267E1,6.685334E1,3.0693307E0,3.2118335E0,6.3641502E1,1.8793937E0,1.1899369E0,1.3788109E0,1.8330226E0,3.8896637E1,2.474487E1,1.8303926E1,2.0592709E1,2.0475704E1,4.269165E0],"tree_param":{"num_deleted":"0","num_feature":"8","num_nodes":"15","size_leaf_vector":"0"}},{"base_weights":[-1.8275362E-2,-7.6356024E-1,5.699146E-3,4.459094E-2,-4.9833485E-1,2.9616657E-1,-2.926153E-2,-6.730602E-1,7.5429976E-2,8.644908E-1,-1.8508367E-1,-8.948237E-2,7.4736154E-1,-7.67505E-1,-1.9809023E-1],"categories":[],"categories_nodes":[],"categories_segments":[],"categories_sizes":[],"default_left":[false,false,true,false,true,true,true,false,false,false,false,false,false,false,false],"id":46,"left_children":[1,-1,3,5,7,9,11,13,-1,-1,-1,-1,-1,-1,-1],"loss_changes":[1.2620642E0,0E0,1.3785104E0,1.2191236E0,5.558715E-1,4.2284274E0,2.464958E0,2.5738955E-2,0E0,0E0,0E0,0E0,0E0,0E0,0E0],"parents":[2147483647,0,0,2,2,3,3,4,4,5,5,6,6,7,7],"right_children":[2,-1,4,6,8,10,12,14,-1,-1,-1,-1,-1,-1,-1],"split_conditions":[7.6378477E-1,-7.635602E-2,1.211882E2,2.2009583E0,8.97339E-1,1.4604113E0,2.7373047E0,3.486825E0,7.5429976E-3,8.644908E-2,-1.8508367E-2,-8.948237E-3,7.4736156E-2,-7.67505E-2,-1.9809023E-2],"split_indices":[3,0,0,3,5,1,2,3,0,0,0,0,0,0,0],"split_type":[0,0,0,0,0,0,0,0,0,0,0,0,0,0,0],"sum_hessian":[6.938975E1,1.2011545E0,6.818859E1,6.415023E1,4.0383673E0,1.3875073E1,5.0275154E1,2.963002E0,1.0753653E0,5.9968505E0,7.8782225E0,4.747837E1,2.7967834E0,1.9578028E0,1.0051991E0],"tree_param":{"num_deleted":"0","num_feature":"8","num_nodes":"15","size_leaf_vector":"0"}},{"base_weights":[-1.7002765E-2,2.7776125E-1,-7.357931E-2,-2.3414781E-2,5.733303E-1,-5.9156674E-1,-9.492284E-3,4.7636682E-1,-4.009516E-1,7.867053E-1,-1.6804716E-1,-7.6586336E-1,1.4621367E-1,3.297018E-2,-7.322049E-1,-1.6113946E-1,8.278787E-1,2.980551E-1,-8.211982E-1,8.4005326E-2,-9.9736655E-1,-3.202139E-1,1.1919775E-1],"categories":[],"categories_nodes":[],"categories_segments":[],"categories_sizes":[],"default_left":[false,true,false,true,true,false,true,true,true,false,false,false,false,true,false,false,false,false,false,false,false,false,false],"id":47,"left_children":[1,3,5,7,9,11,13,15,17,-1,-1,19,-1,21,-1,-1,-1,-1,-1,-1,-1,-1,-1],"loss_changes":[1.1864724E0,1.0343447E0,1.9679434E0,1.4441032E0,1.0540557E0,9.516041E-1,1.6789042E0,8.76251E-1,1.5156286E0,0E0,0E0,1.1544626E0,0E0,1.6183299E0,0E0,0E0,0E0,0E0,0E0,0E0,0E0,0E0,0E0],"parents":[2147483647,0,0,1,1,2,2,3,3,4,4,5,5,6,6,7,7,8,8,11,11,13,13],"right_children":[2,4,6,8,10,12,14,16,18,-1,-1,20,-1,22,-1,-1,-1,-1,-1,-1,-1,-1,-1],"split_conditions":[-1.9833984E0,5.898533E-1,-1.4157715E0,9.433903E0,9.389758E-1,3.358675E0,1.889161E2,-1.9456924E1,-4.8413208E-1,7.867053E-2,-1.6804716E-2,1.9244095E0,1.4621367E-2,-2.3558447E1,-7.322049E-2,-1.6113946E-2,8.278787E-2,2.9805511E-2,-8.211982E-2,8.400532E-3,-9.973665E-2,-3.2021392E-2,1.1919775E-2],"split_indices":[2,5,2,1,5,3,1,1,6,0,0,3,0,1,0,0,0,0,0,0,0,0,0],"split_type":[0,0,0,0,0,0,0,0,0,0,0,0,0,0,0,0,0,0,0,0,0,0,0],"sum_hessian":[6.891987E1,1.0468657E1,5.8451214E1,5.6412106E0,4.8274455E0,5.529336E0,5.292188E1,2.3149345E0,3.3262763E0,3.7010968E0,1.1263489E0,4.441898E0,1.0874383E0,5.088646E1,2.0354176E0,1.0152487E0,1.2996858E0,1.358091E0,1.9681852E0,1.0873331E0,3.3545647E0,9.453162E0,4.14333E1],"tree_param":{"num_deleted":"0","num_feature":"8","num_nodes":"23","size_leaf_vector":"0"}},{"base_weights":[-1.6830646E-2,-7.391319E-1,6.164367E-3,4.3222617E-2,-4.8389882E-1,1.6079556E-2,7.0798254E-1,-6.6230476E-1,7.470281E-2,-6.430092E-1,5.20239E-2],"categories":[],"categories_nodes":[],"categories_segments":[],"categories_sizes":[],"default_left":[false,false,true,true,true,true,false,false,false,false,false],"id":48,"left_children":[1,-1,3,5,7,9,-1,-1,-1,-1,-1],"loss_changes":[1.1593397E0,0E0,1.2626258E0,1.1521406E0,5.3668475E-1,1.525422E0,0E0,0E0,0E0,0E0,0E0],"parents":[2147483647,0,0,2,2,3,3,4,4,5,5],"right_children":[2,-1,4,6,8,10,-1,-1,-1,-1,-1],"split_conditions":[7.6378477E-1,-7.3913194E-2,1.211882E2,4.4920373E0,9.077797E-1,1.703244E-1,7.0798256E-2,-6.6230476E-2,7.470281E-3,-6.430092E-2,5.20239E-3],"split_indices":[3,0,0,3,4,5,0,0,0,0,0],"split_type":[0,0,0,0,0,0,0,0,0,0,0],"sum_hessian":[6.85262E1,1.1533988E0,6.7372795E1,6.3483982E1,3.8888147E0,6.1977543E1,1.5064399E0,2.8067489E0,1.0820659E0,2.3317988E0,5.9645744E1],"tree_param":{"num_deleted":"0","num_feature":"8","num_nodes":"11","size_leaf_vector":"0"}},{"base_weights":[-1.7027093E-2,2.6338142E-1,-7.229577E-2,5.7789487E-1,-2.550494E-2,-6.059808E-1,-1.1623351E-2,7.278339E-1,-5.5596266E-2,6.535682E-1,-3.0715436E-1,-7.9806936E-1,1.3900155E-1,2.747828E-2,-7.094399E-1,1.1780657E-1,9.577562E-1,-9.4426036E-1,1.6912241E-1,9.263161E-2,-1.0719646E0,-2.985132E-1,1.0674382E-1],"categories":[],"categories_nodes":[],"categories_segments":[],"categories_sizes":[],"default_left":[false,true,false,true,false,false,true,true,false,false,false,false,false,true,false,false,false,false,false,false,false,false,false],"id":49,"left_children":[1,3,5,7,9,11,13,15,-1,-1,17,19,-1,21,-1,-1,-1,-1,-1,-1,-1,-1,-1],"loss_changes":[1.0924169E0,1.0704155E0,1.8917482E0,5.7285416E-1,1.5422304E0,9.6476173E-1,1.484041E0,5.3281236E-1,0E0,0E0,1.8704743E0,1.2926993E0,0E0,1.3700887E0,0E0,0E0,0E0,0E0,0E0,0E0,0E0,0E0,0E0],"parents":[2147483647,0,0,1,1,2,2,3,3,4,4,5,5,6,6,7,7,10,10,11,11,13,13],"right_children":[2,4,6,8,10,12,14,16,-1,-1,18,20,-1,22,-1,-1,-1,-1,-1,-1,-1,-1,-1],"split_conditions":[-1.918335E0,-7.144165E-2,-1.4157715E0,1.0318263E2,-3.3200684E0,3.358675E0,1.889161E2,3.5451874E1,-5.5596265E-3,6.535682E-2,-2.6391602E0,1.9244095E0,1.3900155E-2,-2.3558447E1,-7.094399E-2,1.1780657E-2,9.577563E-2,-9.4426036E-2,1.6912242E-2,9.263161E-3,-1.07196465E-1,-2.9851321E-2,1.0674383E-2],"split_indices":[2,4,2,0,2,3,1,7,0,0,2,3,0,1,0,0,0,0,0,0,0,0,0],"split_type":[0,0,0,0,0,0,0,0,0,0,0,0,0,0,0,0,0,0,0,0,0,0,0],"sum_hessian":[6.8259834E1,1.0618887E1,5.7640945E1,4.6049786E0,6.0139084E0,4.9665523E0,5.2674397E1,3.6032183E0,1.0017599E0,1.3759384E0,4.63797E0,3.8918152E0,1.0747368E0,5.078909E1,1.8853065E0,1.4003092E0,2.2029092E0,1.5636796E0,3.0742905E0,1.0709409E0,2.8208745E0,9.392994E0,4.1396095E1],"tree_param":{"num_deleted":"0","num_feature":"8","num_nodes":"23","size_leaf_vector":"0"}},{"base_weights":[-1.6732952E-2,-7.159362E-1,5.263255E-3,7.2587706E-2,-2.4282102E-1,1.13400735E-1,-6.1628675E-1,6.786163E-2,-5.448331E-1,-2.0109825E-1,2.1272586E-1,-2.3918152E-1,8.415502E-1,-7.144499E-1,2.2335204E-1],"categories":[],"categories_nodes":[],"categories_segments":[],"categories_sizes":[],"default_left":[false,false,true,true,true,true,false,true,true,false,false,false,false,false,false],"id":50,"left_children":[1,-1,3,5,7,9,-1,11,13,-1,-1,-1,-1,-1,-1],"loss_changes":[1.0632313E0,0E0,1.1496681E0,1.5903709E0,1.4160396E0,1.6640284E0,0E0,2.133562E0,1.145077E0,0E0,0E0,0E0,0E0,0E0,0E0],"parents":[2147483647,0,0,2,2,3,3,4,4,5,5,7,7,8,8],"right_children":[2,-1,4,6,8,10,-1,12,14,-1,-1,-1,-1,-1,-1],"split_conditions":[7.6378477E-1,-7.159362E-2,1.0348102E2,2.178831E0,-3.0828857E-1,-2.3558447E1,-6.1628677E-2,-8.293457E-1,9.205436E-1,-2.0109825E-2,2.1272587E-2,-2.3918152E-2,8.4155016E-2,-7.144499E-2,2.2335205E-2],"split_indices":[3,0,0,4,2,1,0,2,5,0,0,0,0,0,0],"split_type":[0,0,0,0,0,0,0,0,0,0,0,0,0,0,0],"sum_hessian":[6.788658E1,1.1083027E0,6.677828E1,5.308077E1,1.3697511E1,5.0900505E1,2.1802666E0,7.1340003E0,6.563511E0,1.197109E1,3.8929413E1,5.601762E0,1.5322387E0,5.4336925E0,1.1298184E0],"tree_param":{"num_deleted":"0","num_feature":"8","num_nodes":"15","size_leaf_vector":"0"}},{"base_weights":[-1.7031569E-2,-4.032066E-2,5.974573E-1,-6.331673E-1,-8.696954E-3,3.1479096E-1,-6.64557E-2,7.803305E-1,7.921452E-2,-1.4571388E-2,-7.375978E-1],"categories":[],"categories_nodes":[],"categories_segments":[],"categories_sizes":[],"default_left":[true,true,false,false,false,true,true,false,false,false,false],"id":51,"left_children":[1,3,-1,-1,5,7,9,-1,-1,-1,-1],"loss_changes":[1.0067698E0,1.2524087E0,0E0,0E0,1.2300167E0,1.0324938E0,1.9300041E0,0E0,0E0,0E0,0E0],"parents":[2147483647,0,0,1,1,4,4,5,5,6,6],"right_children":[2,4,-1,-1,6,8,10,-1,-1,-1,-1],"split_conditions":[4.4920373E0,1.703244E-1,5.974573E-2,-6.331673E-2,-1.9833984E0,7.1015366E1,3.8232489E0,7.803305E-2,7.921453E-3,-1.4571388E-3,-7.375979E-2],"split_indices":[3,5,0,0,2,0,3,0,0,0,0],"split_type":[0,0,0,0,0,0,0,0,0,0,0],"sum_hessian":[6.7666595E1,6.609595E1,1.570649E0,2.3838687E0,6.371208E1,8.978171E0,5.4733906E1,2.2397027E0,6.738468E0,5.17546E1,2.979307E0],"tree_param":{"num_deleted":"0","num_feature":"8","num_nodes":"11","size_leaf_vector":"0"}},{"base_weights":[-1.52547425E-2,2.3335768E-2,-3.942511E-1,-1.4062294E-2,6.4336467E-1,-7.53043E-1,4.2475995E-1,4.017227E-2,-4.147328E-1,9.838648E-1,-1.12773284E-1,-1.9460563E-1,-8.543974E-1,-4.6946302E-2,7.51044E-1,9.3148045E-2,-7.245141E-1],"categories":[],"categories_nodes":[],"categories_segments":[],"categories_sizes":[],"default_left":[true,true,true,true,true,true,false,true,true,false,false,false,false,false,false,false,false],"id":52,"left_children":[1,3,5,7,9,11,-1,13,15,-1,-1,-1,-1,-1,-1,-1,-1],"loss_changes":[1.0101168E0,1.4711688E0,2.1947236E0,1.3301876E0,1.0399723E0,1.05255604E-1,0E0,3.38891E0,1.2152107E0,0E0,0E0,0E0,0E0,0E0,0E0,0E0,0E0],"parents":[2147483647,0,0,1,1,2,2,3,3,4,4,5,5,7,7,8,8],"right_children":[2,4,6,8,10,12,-1,14,16,-1,-1,-1,-1,-1,-1,-1,-1],"split_conditions":[1.06163475E2,9.7114136E1,1.3833267E2,8.3598724E1,5.037168E1,-6.213088E-1,4.2475995E-2,7.682205E1,1.6807674E1,9.838648E-2,-1.1277328E-2,-1.9460564E-2,-8.543974E-2,-4.6946304E-3,7.51044E-2,9.314804E-3,-7.245141E-2],"split_indices":[7,7,7,7,1,6,0,7,1,0,0,0,0,0,0,0,0],"split_type":[0,0,0,0,0,0,0,0,0,0,0,0,0,0,0,0,0],"sum_hessian":[6.743565E1,6.205542E1,5.3802357E0,5.944709E1,2.608329E0,3.797274E0,1.5829616E0,5.3152176E1,6.294915E0,1.590798E0,1.0175309E0,1.031887E0,2.765387E0,4.8181416E1,4.9707575E0,2.649848E0,3.6450672E0],"tree_param":{"num_deleted":"0","num_feature":"8","num_nodes":"17","size_leaf_vector":"0"}},{"base_weights":[-1.34917E-2,-6.894867E-1,7.442535E-3,3.8097974E-2,-4.8162156E-1,1.3421588E-2,6.7454714E-1,-6.553347E-1,-1.21436685E-1,-5.8214754E-1,4.4314582E-2],"categories":[],"categories_nodes":[],"categories_segments":[],"categories_sizes":[],"default_left":[false,false,true,true,true,true,false,false,false,false,false],"id":53,"left_children":[1,-1,3,5,7,9,-1,-1,-1,-1,-1],"loss_changes":[9.708428E-1,0E0,1.025554E0,9.983573E-1,1.7294186E-1,1.180714E0,0E0,0E0,0E0,0E0,0E0],"parents":[2147483647,0,0,2,2,3,3,4,4,5,5],"right_children":[2,-1,4,6,8,10,-1,-1,-1,-1,-1],"split_conditions":[7.6378477E-1,-6.894867E-2,1.2308887E2,4.4920373E0,7.604066E-1,1.703244E-1,6.745472E-2,-6.5533474E-2,-1.2143669E-2,-5.8214754E-2,4.431458E-3],"split_indices":[3,0,0,3,5,5,0,0,0,0,0],"split_type":[0,0,0,0,0,0,0,0,0,0,0],"sum_hessian":[6.724121E1,1.0604964E0,6.618072E1,6.3144783E1,3.035931E0,6.1770893E1,1.3738908E0,1.4953167E0,1.5406144E0,2.1661859E0,5.960471E1],"tree_param":{"num_deleted":"0","num_feature":"8","num_nodes":"11","size_leaf_vector":"0"}},{"base_weights":[-1.4190264E-2,-4.304386E-2,4.4958553E-1,5.4748267E-1,-8.0493145E-2,-9.018026E-2,7.516207E-1,-1.4219779E-1,8.255592E-1,5.0262816E-2,-2.823883E-1,-2.2151393E-1,2.8898093E-1,3.5479856E-1,-4.3706447E-1],"categories":[],"categories_nodes":[],"categories_segments":[],"categories_sizes":[],"default_left":[true,true,false,true,true,false,false,false,false,true,true,false,false,false,false],"id":54,"left_children":[1,3,5,7,9,-1,-1,-1,-1,11,13,-1,-1,-1,-1],"loss_changes":[9.2952186E-1,1.4803226E0,7.3149294E-1,8.847573E-1,1.6494582E0,0E0,0E0,0E0,0E0,2.5582197E0,2.5696974E0,0E0,0E0,0E0,0E0],"parents":[2147483647,0,0,1,1,2,2,3,3,4,4,9,9,10,10],"right_children":[2,4,6,8,10,-1,-1,-1,-1,12,14,-1,-1,-1,-1],"split_conditions":[2.7373047E0,-1.5220833E0,2.9711611E0,4.5172572E-1,1.7224018E1,-9.018026E-3,7.5162075E-2,-1.4219779E-2,8.255592E-2,6.103041E-2,3.230226E-1,-2.2151394E-2,2.8898094E-2,3.5479855E-2,-4.3706447E-2],"split_indices":[2,4,3,5,1,0,0,0,0,6,5,0,0,0,0],"split_type":[0,0,0,0,0,0,0,0,0,0,0,0,0,0,0],"sum_hessian":[6.701653E1,6.3945385E1,3.0711446E0,3.0011919E0,6.0944195E1,1.3535843E0,1.7175602E0,1.0027723E0,1.9984195E0,3.7444546E1,2.3499651E1,1.7543556E1,1.9900988E1,4.33751E0,1.916214E1],"tree_param":{"num_deleted":"0","num_feature":"8","num_nodes":"15","size_leaf_vector":"0"}},{"base_weights":[-1.0987961E-2,-6.7283225E-1,9.318892E-3,2.3661457E-1,-5.7312876E-2,7.1111465E-1,-2.4887106E-1,-1.08997494E-1,6.8276095E-1,1.6211486E-1,1.200855E0,1.2821248E-1,-7.8228074E-1,7.475811E-2,-2.8775513E-1],"categories":[],"categories_nodes":[],"categories_segments":[],"categories_sizes":[],"default_left":[false,false,false,true,true,true,true,true,false,false,false,false,false,false,false],"id":55,"left_children":[1,-1,3,5,7,9,11,13,-1,-1,-1,-1,-1,-1,-1],"loss_changes":[9.137461E-1,0E0,1.0206655E0,3.6945028E0,2.0721436E0,1.9512515E0,1.7673743E0,1.6534032E0,0E0,0E0,0E0,0E0,0E0,0E0,0E0],"parents":[2147483647,0,0,2,2,3,3,4,4,5,5,6,6,7,7],"right_children":[2,-1,4,6,8,10,12,14,-1,-1,-1,-1,-1,-1,-1],"split_conditions":[7.6378477E-1,-6.728323E-2,2.2009583E0,4.673679E0,2.7373047E0,5.064697E-1,-2.993467E-1,8.013551E1,6.82761E-2,1.6211485E-2,1.200855E-1,1.2821249E-2,-7.822808E-2,7.4758115E-3,-2.8775513E-2],"split_indices":[3,0,3,1,2,4,6,0,0,0,0,0,0,0,0],"split_type":[0,0,0,0,0,0,0,0,0,0,0,0,0,0,0],"sum_hessian":[6.652067E1,1.0236733E0,6.5496994E1,1.42695E1,5.1227493E1,6.9813623E0,7.2881374E0,4.8680508E1,2.5469851E0,3.9190843E0,3.0622778E0,4.7147636E0,2.5733738E0,2.429156E1,2.4388948E1],"tree_param":{"num_deleted":"0","num_feature":"8","num_nodes":"15","size_leaf_vector":"0"}},{"base_weights":[-9.1912085E-3,2.5497177E-1,-5.8518108E-2,-2.019012E-2,5.2703464E-1,-8.502515E-3,-5.678152E-1,4.3330398E-1,-3.536491E-1,7.273227E-1,-1.6236798E-1,-7.143171E-1,4.2135797E-2,2.808046E-1,-8.537218E-1,2.9295242E-1,-7.576762E-1,-8.456995E-1,-1.8937151E-1,-7.138854E-2,3.9678478E-1],"categories":[],"categories_nodes":[],"categories_segments":[],"categories_sizes":[],"default_left":[false,true,true,true,true,true,true,false,true,false,false,true,true,false,false,false,false,false,false,false,false],"id":56,"left_children":[1,3,5,7,9,11,13,-1,15,-1,-1,17,19,-1,-1,-1,-1,-1,-1,-1,-1],"loss_changes":[8.8812625E-1,8.139814E-1,1.4543104E0,1.1056684E0,8.682512E-1,1.9306418E0,1.4788601E0,0E0,1.3139839E0,0E0,0E0,8.9193225E-2,2.0639257E0,0E0,0E0,0E0,0E0,0E0,0E0,0E0,0E0],"parents":[2147483647,0,0,1,1,2,2,3,3,4,4,5,5,6,6,8,8,11,11,12,12],"right_children":[2,4,6,8,10,12,14,-1,16,-1,-1,18,20,-1,-1,-1,-1,-1,-1,-1,-1],"split_conditions":[-1.9833984E0,5.898533E-1,1.06163475E2,9.433903E0,9.389758E-1,-7.3228556E-1,-7.094966E-1,4.3330397E-2,-4.8413208E-1,7.273227E-2,-1.6236799E-2,1.083353E2,7.682205E1,2.8080462E-2,-8.537218E-2,2.9295241E-2,-7.576762E-2,-8.456995E-2,-1.8937152E-2,-7.1388544E-3,3.967848E-2],"split_indices":[2,5,7,1,5,6,6,0,6,0,0,0,7,0,0,0,0,0,0,0,0],"split_type":[0,0,0,0,0,0,0,0,0,0,0,0,0,0,0,0,0,0,0,0,0],"sum_hessian":[6.6013275E1,9.731049E0,5.6282223E1,5.298243E0,4.4328055E0,5.2175056E1,4.107165E0,2.1181717E0,3.1800714E0,3.3922663E0,1.0405395E0,2.6153355E0,4.9559723E1,1.0395243E0,3.0676405E0,1.3286422E0,1.851429E0,1.6030931E0,1.0122424E0,3.814734E1,1.1412385E1],"tree_param":{"num_deleted":"0","num_feature":"8","num_nodes":"21","size_leaf_vector":"0"}},{"base_weights":[-9.569669E-3,1.8401561E-2,-4.7295925E-1,-1.024808E-1,1.5197256E-1,-6.313549E-1,-1.2558939E-1,-5.0289613E-1,4.2352565E-2,2.4297275E-2,7.068629E-1,-7.804839E-1,3.0125156E-1,-1.677708E-1,4.738557E-1,-5.923898E-1,1.4768058E-1,1.0190808E0,-3.0761795E-2],"categories":[],"categories_nodes":[],"categories_segments":[],"categories_sizes":[],"default_left":[true,true,true,true,true,false,false,true,true,false,true,false,false,false,false,false,false,false,false],"id":57,"left_children":[1,3,5,7,9,-1,-1,11,13,15,17,-1,-1,-1,-1,-1,-1,-1,-1],"loss_changes":[8.733371E-1,1.0468857E0,1.3170874E-1,2.0003915E0,2.161086E0,0E0,0E0,2.275931E0,2.4354014E0,2.0681481E0,1.3476496E0,0E0,0E0,0E0,0E0,0E0,0E0,0E0,0E0],"parents":[2147483647,0,0,1,1,2,2,3,3,4,4,7,7,8,8,9,9,10,10],"right_children":[2,4,6,8,10,-1,-1,12,14,16,18,-1,-1,-1,-1,-1,-1,-1,-1],"split_conditions":[1.2308887E2,5.880543E1,7.604066E-1,-2.509034E1,8.967352E-1,-6.31355E-2,-1.2558939E-2,8.473511E-1,3.9901018E-1,1.7215939E0,9.528862E-1,-7.804839E-2,3.0125156E-2,-1.6777081E-2,4.738557E-2,-5.923898E-2,1.4768058E-2,1.0190808E-1,-3.0761797E-3],"split_indices":[0,7,5,1,5,0,0,4,6,3,5,0,0,0,0,0,0,0,0],"split_type":[0,0,0,0,0,0,0,0,0,0,0,0,0,0,0,0,0,0,0],"sum_hessian":[6.5707466E1,6.287262E1,2.8348424E0,3.3126106E1,2.9746515E1,1.3855311E0,1.4493114E0,8.142528E0,2.4983578E1,2.5030914E1,4.7156005E0,6.0749216E0,2.0676055E0,1.7212856E1,7.770722E0,3.5393803E0,2.1491535E1,3.0451114E0,1.6704892E0],"tree_param":{"num_deleted":"0","num_feature":"8","num_nodes":"19","size_leaf_vector":"0"}},{"base_weights":[-9.36076E-3,2.314834E-1,-6.0676612E-2,-7.4362403E-1,4.1131297E-1,-7.8329307E-1,2.0772707E-2,6.1849225E-1,-2.9078245E-1,1.9246328E-1,-1.048672E0,-1.5560928E-1,1.9258669E-1,1.2456939E-1,9.782569E-1,7.430515E-2,-5.03966E-1,2.7045557E-2,-7.029201E-1,4.4395754E-1,-4.47477E-1],"categories":[],"categories_nodes":[],"categories_segments":[],"categories_sizes":[],"default_left":[true,true,true,false,false,true,true,false,true,false,false,true,true,false,false,false,false,false,false,false,false],"id":58,"left_children":[1,3,5,-1,7,9,11,13,15,-1,-1,17,19,-1,-1,-1,-1,-1,-1,-1,-1],"loss_changes":[8.334739E-1,2.3843358E0,3.2797775E0,0E0,1.7291888E0,1.6629508E0,1.5696338E0,1.396414E0,2.792771E-1,0E0,0E0,2.5804913E0,4.4113445E0,0E0,0E0,0E0,0E0,0E0,0E0,0E0,0E0],"parents":[2147483647,0,0,1,1,2,2,4,4,5,5,6,6,7,7,8,8,11,11,12,12],"right_children":[2,4,6,-1,8,10,12,14,16,-1,-1,18,20,-1,-1,-1,-1,-1,-1,-1,-1],"split_conditions":[3.4455963E1,-4.913726E-1,3.9619736E1,-7.4362405E-2,1.7902832E0,2.2750382E0,2.651675E0,-1.2523193E0,2.2723389E-1,1.9246329E-2,-1.048672E-1,2.290223E0,1.0011355E2,1.245694E-2,9.782569E-2,7.430515E-3,-5.03966E-2,2.7045559E-3,-7.029201E-2,4.4395756E-2,-4.4747703E-2],"split_indices":[7,6,7,0,2,3,3,2,4,0,0,3,0,0,0,0,0,0,0,0,0],"split_type":[0,0,0,0,0,0,0,0,0,0,0,0,0,0,0,0,0,0,0,0,0],"sum_hessian":[6.530149E1,1.0853073E1,5.4448418E1,1.2017182E0,9.651355E0,4.642584E0,4.9805836E1,7.5442276E0,2.1071277E0,1.0514239E0,3.5911598E0,2.4622753E1,2.518308E1,3.746664E0,3.7975633E0,1.0169681E0,1.0901594E0,1.9174278E1,5.4484754E0,1.8301828E1,6.8812523E0],"tree_param":{"num_deleted":"0","num_feature":"8","num_nodes":"21","size_leaf_vector":"0"}},{"base_weights":[-1.1036039E-2,2.3818138E-1,-5.873125E-2,5.449833E-1,-4.2161856E-2,-5.375448E-1,-5.4295626E-3,5.585803E-2,7.388582E-1,5.802518E-1,-2.961009E-1,-7.259389E-1,1.4298274E-1,2.8849483E-1,-8.456835E-2,-8.86976E-1,1.6028512E-1,1.1218073E-1,-9.932005E-1,-1.2418743E-1,7.2474104E-1,-7.428921E-1,-2.8621849E-2],"categories":[],"categories_nodes":[],"categories_segments":[],"categories_sizes":[],"default_left":[false,true,false,true,false,false,false,false,false,false,false,false,false,false,false,false,false,false,false,false,false,false,false],"id":59,"left_children":[1,3,5,7,9,11,13,-1,-1,-1,15,17,-1,19,21,-1,-1,-1,-1,-1,-1,-1,-1],"loss_changes":[7.968285E-1,9.4993365E-1,1.4283918E0,4.535129E-1,1.208605E0,8.2272446E-1,1.2217445E0,0E0,0E0,0E0,1.5770729E0,1.1320157E0,0E0,2.0966604E0,1.5009097E0,0E0,0E0,0E0,0E0,0E0,0E0,0E0,0E0],"parents":[2147483647,0,0,1,1,2,2,3,3,4,4,5,5,6,6,10,10,11,11,13,13,14,14],"right_children":[2,4,6,8,10,12,14,-1,-1,-1,16,18,-1,20,22,-1,-1,-1,-1,-1,-1,-1,-1],"split_conditions":[-1.918335E0,-7.144165E-2,-1.4157715E0,4.5276184E1,-3.3200684E0,3.358675E0,-6.672363E-1,5.585803E-3,7.388582E-2,5.802518E-2,-2.6391602E0,1.9244095E0,1.4298274E-2,-1.0057373E0,-4.300232E-1,-8.8697605E-2,1.6028512E-2,1.1218074E-2,-9.932005E-2,-1.2418743E-2,7.247411E-2,-7.428921E-2,-2.862185E-3],"split_indices":[2,4,2,7,2,3,2,0,0,0,2,3,0,2,2,0,0,0,0,0,0,0,0],"split_type":[0,0,0,0,0,0,0,0,0,0,0,0,0,0,0,0,0,0,0,0,0,0,0],"sum_hessian":[6.48597E1,9.777325E0,5.5082382E1,4.2176394E0,5.559685E0,4.607537E0,5.0474842E1,1.5628506E0,2.6547887E0,1.2386662E0,4.3210187E0,3.556298E0,1.0512389E0,1.0146169E1,4.0328674E1,1.4718992E0,2.8491197E0,1.000146E0,2.556152E0,5.581491E0,4.5646777E0,2.1970713E0,3.8131603E1],"tree_param":{"num_deleted":"0","num_feature":"8","num_nodes":"23","size_leaf_vector":"0"}},{"base_weights":[-1.0475377E-2,1.5513028E-2,-4.4906014E-1,-2.4489958E-2,3.9647415E-1,-6.0748744E-1,-1.1365036E-1,3.710116E-2,-5.621525E-1,8.725839E-1,-2.1214142E-1,-4.7496986E-1,8.0793865E-2,-7.265586E-1,1.2831745E-1,-4.633673E-2,1.5120549E0,1.4038184E-1,-4.4673958E-1],"categories":[],"categories_nodes":[],"categories_segments":[],"categories_sizes":[],"default_left":[true,true,true,true,true,false,false,true,true,false,true,false,false,false,false,false,false,false,false],"id":60,"left_children":[1,3,5,7,9,-1,-1,11,13,15,17,-1,-1,-1,-1,-1,-1,-1,-1],"loss_changes":[7.543836E-1,9.678547E-1,1.2765533E-1,1.936222E0,1.9332024E0,0E0,0E0,1.2204429E0,7.750877E-1,2.1739917E0,3.4822604E-1,0E0,0E0,0E0,0E0,0E0,0E0,0E0,0E0],"parents":[2147483647,0,0,1,1,2,2,3,3,4,4,7,7,8,8,9,9,10,10],"right_children":[2,4,6,8,10,-1,-1,12,14,16,18,-1,-1,-1,-1,-1,-1,-1,-1],"split_conditions":[1.2308887E2,1.10959335E2,7.604066E-1,1.0348102E2,-3.0993652E-1,-6.0748745E-2,-1.13650365E-2,1.9541527E-1,1.0550842E0,-8.3935547E-1,1.1546448E2,-4.7496986E-2,8.079386E-3,-7.2655864E-2,1.2831745E-2,-4.633673E-3,1.512055E-1,1.4038185E-2,-4.467396E-2],"split_indices":[0,0,5,0,2,0,0,5,4,2,0,0,0,0,0,0,0,0,0],"split_type":[0,0,0,0,0,0,0,0,0,0,0,0,0,0,0,0,0,0,0],"sum_hessian":[6.4573746E1,6.1872135E1,2.701613E0,5.6839405E1,5.03273E0,1.2839655E0,1.4176476E0,5.1832775E1,5.0066295E0,2.580404E0,2.4523263E0,3.2989502E0,4.8533825E1,4.0015607E0,1.0050687E0,1.4394506E0,1.1409534E0,1.1403562E0,1.3119701E0],"tree_param":{"num_deleted":"0","num_feature":"8","num_nodes":"19","size_leaf_vector":"0"}},{"base_weights":[-1.0471745E-2,-3.0777583E-2,5.5375916E-1,-5.698042E-1,-2.8971403E-3,3.2170713E-2,-4.228299E-1,-4.6497874E-2,5.5499065E-1,-8.9264524E-1,2.457116E-1],"categories":[],"categories_nodes":[],"categories_segments":[],"categories_sizes":[],"default_left":[true,true,false,false,true,true,true,false,false,false,false],"id":61,"left_children":[1,3,-1,-1,5,7,9,-1,-1,-1,-1],"loss_changes":[7.665516E-1,9.6155864E-1,0E0,0E0,9.25829E-1,2.4154727E0,1.7411098E0,0E0,0E0,0E0,0E0],"parents":[2147483647,0,0,1,1,4,4,5,5,6,6],"right_children":[2,4,-1,-1,6,8,10,-1,-1,-1,-1],"split_conditions":[4.4920373E0,1.703244E-1,5.5375915E-2,-5.698042E-2,9.5368946E-1,9.010725E-1,3.0327358E0,-4.6497877E-3,5.5499066E-2,-8.926453E-2,2.457116E-2],"split_indices":[3,5,0,0,5,5,3,0,0,0,0],"split_type":[0,0,0,0,0,0,0,0,0,0,0],"sum_hessian":[6.4418205E1,6.3093033E1,1.3251729E0,2.1469796E0,6.0946053E1,5.7101036E1,3.8450172E0,5.0424706E1,6.67633E0,2.0612602E0,1.783757E0],"tree_param":{"num_deleted":"0","num_feature":"8","num_nodes":"11","size_leaf_vector":"0"}},{"base_weights":[-9.770326E-3,2.400462E-1,-5.4734156E-2,4.689912E-2,5.8132684E-1,-4.117593E-1,3.558097E-3,5.532298E-1,-2.4256915E-1,-3.1719554E-2,-6.348063E-1,3.654321E-1,-7.707929E-2,1.0407045E-1,7.244632E-1,2.2429702E-1,-5.4828125E-1,3.5061568E-1,-4.2344612E-1,-8.267582E-2,-8.288407E-1,-1.2699616E-1,6.360634E-1,-6.969429E-1,-2.4856651E-2],"categories":[],"categories_nodes":[],"categories_segments":[],"categories_sizes":[],"default_left":[false,false,false,true,false,true,false,false,false,true,true,false,false,false,false,false,false,false,false,false,false,false,false,false,false],"id":62,"left_children":[1,3,5,7,-1,9,11,13,15,17,19,21,23,-1,-1,-1,-1,-1,-1,-1,-1,-1,-1,-1,-1],"loss_changes":[7.450236E-1,6.400987E-1,1.1675992E0,1.2412138E0,0E0,6.472359E-1,1.4626642E0,1.5935123E-1,9.0809083E-1,7.422152E-1,4.573511E-1,1.2978104E0,1.3107575E0,0E0,0E0,0E0,0E0,0E0,0E0,0E0,0E0,0E0,0E0,0E0,0E0],"parents":[2147483647,0,0,1,1,2,2,3,3,5,5,6,6,7,7,8,8,9,9,10,10,11,11,12,12],"right_children":[2,4,6,8,-1,10,12,14,16,18,20,22,24,-1,-1,-1,-1,-1,-1,-1,-1,-1,-1,-1,-1],"split_conditions":[-1.9833984E0,3.3405719E0,-1.2828369E0,7.1015366E1,5.8132686E-2,4.7771075E-1,-6.672363E-1,2.7029142E0,2.5893655E0,-5.491233E0,-1.7648745E-1,2.2771125E0,-4.300232E-1,1.0407045E-2,7.2446324E-2,2.2429703E-2,-5.4828126E-2,3.5061568E-2,-4.234461E-2,-8.267582E-3,-8.2884066E-2,-1.2699616E-2,6.3606344E-2,-6.9694296E-2,-2.4856653E-3],"split_indices":[2,3,2,0,0,5,2,3,3,1,6,3,2,0,0,0,0,0,0,0,0,0,0,0,0],"split_type":[0,0,0,0,0,0,0,0,0,0,0,0,0,0,0,0,0,0,0,0,0,0,0,0,0],"sum_hessian":[6.4156586E1,9.1242285E0,5.5032356E1,6.552995E0,2.5712335E0,6.87304E0,4.8159313E1,2.0521798E0,4.500815E0,2.9643786E0,3.9086614E0,8.132325E0,4.002699E1,1.0101756E0,1.0420043E0,1.8863704E0,2.6144447E0,1.5532826E0,1.4110959E0,1.3872606E0,2.521401E0,3.0724952E0,5.0598297E0,2.150906E0,3.7876083E1],"tree_param":{"num_deleted":"0","num_feature":"8","num_nodes":"25","size_leaf_vector":"0"}},{"base_weights":[-9.052513E-3,-3.4243416E-2,4.362359E-1,5.0434226E-1,-6.9750085E-2,7.2705406E-1,-1.441904E-1,-2.0181999E-2,9.654856E-1,5.0881166E-2,-2.5588876E-1,4.6790966E-1,-8.369878E-2,-9.544008E-2,-8.765008E-1],"categories":[],"categories_nodes":[],"categories_segments":[],"categories_sizes":[],"default_left":[true,true,true,false,true,false,false,false,false,false,true,false,false,false,false],"id":63,"left_children":[1,3,5,7,9,-1,-1,-1,-1,11,13,-1,-1,-1,-1],"loss_changes":[7.423865E-1,1.2266781E0,7.032431E-1,9.8096573E-1,1.3452448E0,0E0,0E0,0E0,0E0,2.1064417E0,2.2560508E0,0E0,0E0,0E0,0E0],"parents":[2147483647,0,0,1,1,2,2,3,3,4,4,9,9,10,10],"right_children":[2,4,6,8,10,-1,-1,-1,-1,12,14,-1,-1,-1,-1],"split_conditions":[2.8083496E0,-1.5220833E0,9.392047E1,-2.6939392E-1,1.7224018E1,7.270541E-2,-1.4419041E-2,-2.0182E-3,9.654856E-2,2.171412E0,1.6230778E-1,4.679097E-2,-8.369878E-3,-9.544008E-3,-8.765008E-2],"split_indices":[2,4,0,2,1,0,0,0,0,3,6,0,0,0,0],"split_type":[0,0,0,0,0,0,0,0,0,0,0,0,0,0,0],"sum_hessian":[6.3851044E1,6.1305935E1,2.5451074E0,2.975016E0,5.833092E1,1.5272632E0,1.0178442E0,1.8392308E0,1.1357852E0,3.583434E1,2.249658E1,8.138479E0,2.7695862E1,1.879201E1,3.7045705E0],"tree_param":{"num_deleted":"0","num_feature":"8","num_nodes":"15","size_leaf_vector":"0"}},{"base_weights":[-6.8130884E-3,-4.9505856E-2,2.6771802E-1,-1.2494706E-2,-5.6578743E-1,5.7764596E-1,-4.147507E-1,-5.8797527E-2,5.903003E-1,2.2567199E-1,-1.0839243E0,7.7229345E-1,-3.1732235E-2,5.8319435E-2,-7.4211824E-1,-3.4885588E-1,1.7349495E-2,1.629025E-1,7.501288E-1,1.8996933E-1,9.79488E-1],"categories":[],"categories_nodes":[],"categories_segments":[],"categories_sizes":[],"default_left":[true,true,true,true,false,true,false,true,false,false,false,true,false,false,false,false,false,false,false,false,false],"id":64,"left_children":[1,3,5,7,9,11,13,15,17,-1,-1,19,-1,-1,-1,-1,-1,-1,-1,-1,-1],"loss_changes":[7.695798E-1,1.0761644E0,